126853 100
</s> 0.004003 0.004419 -0.003830 -0.003278 0.001367 0.003021 0.000941 0.000211 -0.003604 0.002218 -0.004356 0.001250 -0.000751 -0.000957 -0.003316 -0.001882 0.002579 0.003025 0.002969 0.001597 0.001545 -0.003803 -0.004096 0.004970 0.003801 0.003090 -0.000604 0.004016 -0.000495 0.000735 -0.000149 -0.002983 0.001312 -0.001337 -0.003825 0.004754 0.004379 -0.001095 -0.000226 0.000509 -0.003638 -0.004007 0.004555 0.000063 -0.002582 -0.003042 -0.003076 0.001697 0.000201 0.001331 -0.004214 -0.003808 -0.000130 0.001144 0.002550 -0.003170 0.004080 0.000927 0.001120 -0.000608 0.002986 -0.002288 -0.002097 0.002158 -0.000753 0.001031 0.001805 -0.004089 -0.001983 0.002914 0.004232 0.003932 -0.003047 -0.002108 -0.000909 0.002001 -0.003788 0.002998 0.002788 -0.001599 -0.001552 -0.002238 0.004229 0.003912 -0.001180 0.004215 0.004820 0.001815 0.004983 -0.003111 -0.001532 -0.002107 -0.002907 0.002815 0.001579 0.000425 -0.002194 0.001524 0.003059 0.000194 
get 2.039829 -2.708026 0.377722 -0.524713 -0.895476 0.501481 -0.767533 -2.252858 -2.118173 -0.670075 0.793047 1.641453 -0.948583 1.680905 -2.620994 -2.395402 -1.529951 -1.346756 0.121627 0.462621 -0.661175 -1.326803 1.877906 0.552392 1.054229 -1.205428 -0.252845 -1.185112 -0.313527 -1.781721 0.670073 -0.373983 -0.209087 -2.433338 1.004650 -0.723180 -0.036828 -1.222481 -0.052607 -1.468302 0.168428 0.011551 -0.773162 -1.930969 2.388617 1.505110 -0.769146 -0.160564 -3.067819 -1.125720 -0.630882 -1.453147 -2.221696 1.888340 -0.098314 0.623309 -0.092851 -1.211307 -2.905959 -0.308936 1.466398 1.652743 -1.504242 -0.664480 -1.430508 -1.368681 -1.002964 1.462635 -0.676947 0.849016 -0.298713 -1.169671 1.346917 -2.625988 -0.683169 -0.502327 0.433614 0.284409 -1.868728 0.179528 -1.696920 0.319633 -0.593326 -0.743973 1.523632 0.564462 0.281282 -0.294774 0.149795 0.252466 -0.132597 1.273966 0.988460 -0.287923 -0.192100 -0.241973 1.466125 2.781719 0.405061 1.407913 
.new -0.244803 -1.952450 1.946549 -0.907327 0.646546 4.396550 0.182657 0.437913 -1.281896 -0.721827 0.854532 0.519466 1.276009 -2.726218 -2.363407 0.431148 -1.812851 2.895978 1.016585 0.109506 0.171067 0.573831 0.047971 1.269126 0.777953 1.284199 1.748006 0.880495 0.676555 0.786930 -0.336183 -0.646971 0.323901 0.617917 -0.120628 0.604641 -2.776031 2.180690 0.161414 -0.464610 -0.121025 -1.301680 0.906710 -0.177371 -1.943730 -0.570934 -0.303579 -2.137096 -1.128126 1.090655 -0.973329 2.098045 -0.607195 1.091870 0.060179 -1.912191 -0.389857 1.864311 -0.063757 -1.480942 0.099578 2.958615 -2.085532 0.617574 0.609001 1.933547 0.191312 0.723135 -0.097834 1.006385 1.615471 -2.130326 2.253001 0.839176 1.762260 -1.158606 -1.383247 0.839521 -1.545422 0.079019 1.529841 0.780828 0.123688 -1.032398 0.728474 1.846811 0.455247 -1.144742 2.133638 2.216088 -1.055463 -0.638579 0.853437 -0.530920 -1.115001 0.355017 -1.412376 1.496752 0.849914 0.620108 
set 1.382812 -2.135979 0.736297 0.361094 0.970967 1.212249 -1.373471 -1.661673 -1.595796 1.329533 0.858972 -0.262344 0.117200 -1.175392 -2.029414 0.928879 -0.322832 0.183417 1.962277 0.755711 0.707899 -0.429572 -0.595416 2.223654 0.872641 0.089557 0.549405 1.065476 2.157579 0.745808 1.021104 0.607189 -1.374834 -0.089215 0.334622 -0.801180 -0.942062 0.625318 -0.255098 -1.099436 -0.747556 0.539098 -1.043644 -1.558970 0.752725 1.569189 -0.667033 -1.740951 0.193854 0.163667 -1.543253 -0.029525 -0.236897 1.701390 -0.266833 -1.934301 -1.204415 -0.104626 -0.020282 0.454503 0.405694 0.975883 -3.564591 -0.635874 -1.119256 0.608978 -1.460796 -0.037311 -0.275730 -1.460121 0.387126 -1.093856 -0.017957 -0.415606 0.058804 -0.708050 0.085788 0.352804 -2.313260 0.174879 0.122150 -0.026700 -1.932919 1.871311 0.956690 -0.348896 -1.504445 -1.250697 1.095547 2.500548 -1.722851 -0.137052 -0.438506 1.081836 -0.083188 -1.111140 -0.104944 0.992487 -0.056674 1.340200 
add -1.100310 -0.932547 0.345766 1.773574 0.517510 3.913580 0.878225 1.536270 -2.939938 -1.669417 -0.231348 0.380699 0.010007 0.966654 -3.751061 2.647797 -0.058212 1.346895 1.462945 0.744115 -0.448347 1.893801 -0.644687 1.241182 3.172215 -0.747546 -1.356382 -0.738369 3.644021 -1.649976 -3.585750 -0.493430 1.538892 4.385495 1.331663 -0.586300 -0.418236 4.073752 1.133252 -0.676869 0.412825 -2.714672 1.185792 -1.099427 0.798775 -0.650132 1.867330 0.944427 -0.870692 0.461213 -4.766366 1.157059 -2.494365 -0.098575 0.147329 1.762755 1.252267 1.037718 0.489006 2.511764 0.285359 -0.428954 -4.256241 2.049568 -1.213974 1.743992 0.654570 1.174694 1.317290 -0.299578 0.620492 -0.847596 2.664013 -0.845653 -0.373275 -2.293602 -1.174246 -2.385733 -2.631781 -2.334384 2.124153 2.040496 3.388126 0.146621 0.337026 3.163898 1.577975 -0.170330 -1.194103 3.638025 -1.910358 -1.195977 -1.475803 -1.163821 2.445335 0.025630 1.516738 3.454510 -1.474113 0.136544 
append -0.004630 0.084457 3.697785 -0.279346 -1.820125 2.931586 -2.746982 -0.656491 -2.604040 0.060262 -4.277941 -0.147874 -0.474913 -2.362373 -0.514432 -0.138248 -0.659865 -0.716216 -2.392737 1.942847 0.138218 0.943963 -0.073810 2.918618 -0.881521 0.542487 2.567494 1.192743 2.221375 0.020124 0.779034 0.565531 0.172743 2.064358 1.307717 2.588440 -2.295610 -0.183213 0.628752 0.596148 -2.960075 2.219660 -1.544635 -0.020684 0.242999 -0.408367 -0.579304 -0.737917 -1.221493 -1.217470 -1.387841 1.109307 0.699781 3.622360 -2.599472 -1.795058 -0.762143 1.824066 3.691511 -1.077279 0.340859 -0.695210 -1.079235 -3.471411 -1.420180 -0.455712 2.927014 1.257566 0.306504 0.288497 -0.341479 0.748915 1.382168 -0.864619 0.832298 3.664987 -1.734557 1.644099 -1.779227 -0.057785 1.801711 1.264040 0.406456 -0.274809 -2.321181 5.229579 2.633679 -3.380702 -0.715233 -0.727905 1.067905 1.941194 0.800097 -4.081864 -0.479382 1.174394 0.549370 0.561383 3.339107 1.121491 
equal -0.769516 -3.392845 -0.091416 0.207107 -3.138631 -0.314719 0.559995 0.663489 -1.545033 0.643652 -0.421524 0.195733 -1.981089 1.723612 0.966942 0.232240 -1.786715 0.028216 0.502551 0.371911 -3.402044 1.883024 -0.533057 0.332958 1.580349 -2.666691 1.169058 -0.309524 -0.092599 2.279889 0.709907 -2.023013 1.338499 -1.295238 1.612172 0.581313 1.923113 -0.603524 -1.025648 -0.933330 -3.342844 0.815467 1.316983 1.049723 -0.050171 1.219033 0.292491 -0.401195 -3.443517 -1.220626 -0.556104 -0.696040 -0.861338 0.352664 1.138287 1.513617 0.158468 -2.666322 -3.265604 -2.196016 -1.043185 3.901509 1.904213 -2.037374 -1.080352 0.307493 -2.913059 2.896367 1.182826 0.566304 -2.606693 -0.144769 0.786507 -2.064923 -1.684700 1.841720 -0.735923 -1.816196 0.527375 -2.374419 1.287877 1.336106 0.357088 2.202121 1.360181 1.530053 2.486174 0.745741 -0.021339 -1.263944 -0.210136 -0.231962 1.822894 0.127511 -1.121407 -2.272991 1.865525 -1.366779 2.251377 1.621205 
string 0.286174 -1.033710 2.679368 -0.398962 -0.242508 3.430313 -2.867016 -0.998892 -1.318594 0.209736 -2.581111 -1.639416 -0.785985 -3.407207 1.204291 -0.255095 0.678271 -1.123108 -0.631557 1.181971 0.204541 0.932612 -0.236755 1.683256 -0.699146 0.830871 1.113933 1.343433 -0.343332 0.463633 2.295291 0.765137 0.288123 1.138847 0.691015 2.544143 -2.001450 -0.613016 -0.251197 0.591266 -1.780412 1.600520 0.209777 -0.960548 -0.064019 -1.207209 -0.751853 0.102153 -0.790336 -0.085423 1.944247 0.246071 1.791236 2.870928 -1.985358 -1.525135 -0.868352 1.252883 0.245320 -0.921409 -0.632571 -0.706047 0.350407 -3.545084 -1.293919 -0.399172 1.480600 1.021619 -0.023758 0.941127 0.786486 1.006291 0.057432 -1.316585 -1.212160 2.879703 -0.874989 1.122818 0.237384 0.855318 -0.610461 -1.278869 0.791543 0.924341 -0.869622 4.575522 -0.016969 -0.512705 1.714970 0.447411 1.026842 2.236845 0.377290 -1.872759 -1.578511 0.522214 -0.524784 -0.435494 -0.710245 0.919376 
valu 1.649435 -2.303578 0.271415 -0.599261 -2.182117 -0.256242 0.639447 -0.626227 0.593325 2.759098 -0.602201 -0.504194 -1.969118 -0.706532 0.710551 1.013755 3.686443 -0.051397 2.954150 0.448127 1.706368 1.036471 -0.363175 0.657986 -1.262680 -1.097874 1.595189 1.022015 0.899538 1.207911 0.635921 -0.106756 -1.018725 -2.176498 0.224167 -0.536097 1.166309 -1.430808 -0.504344 1.982762 0.754476 -0.406817 1.314742 0.164529 -0.122328 1.449024 -0.015432 0.141563 0.405535 0.552886 2.503613 -1.622326 0.219919 1.459211 0.168486 -2.430801 1.258209 -0.424514 -1.657291 -0.337612 1.018004 0.448805 -1.056999 -2.778054 -1.850058 -2.834068 -2.483104 -1.257150 0.978233 -0.113831 -0.690182 -0.848785 -0.222384 -1.510234 -1.595335 -1.583264 -0.571864 -1.437593 -2.739095 -0.281838 0.261940 2.075343 2.430019 1.443111 2.077433 2.578795 -0.209857 1.332544 2.853400 -1.221467 -0.603658 -1.044439 -3.294549 1.241387 -1.838523 2.004112 0.175344 0.596704 1.258774 0.696999 
return 3.684365 -0.364058 -2.263874 0.788338 2.725134 0.928150 -3.975224 0.810961 -0.159413 5.176447 -1.047401 0.564041 -1.660712 -0.780046 2.165540 -1.330058 1.502662 -0.245756 -2.498552 2.802270 -0.250286 -2.485448 -0.921056 -0.678247 -0.413345 3.346296 -0.471116 -0.874556 0.079149 -3.563608 0.666584 1.334815 2.423173 0.904155 1.177811 -0.309835 4.708256 0.379358 0.483991 2.755113 -0.143135 0.422217 -1.022174 1.024031 1.051905 4.232400 -0.897806 -1.704151 0.757046 0.473044 0.596594 1.212269 -0.290702 1.722749 0.450680 2.084696 -1.563810 1.128626 -1.608589 0.573405 -3.010891 -0.146962 1.152208 1.151848 0.501908 -3.085237 -2.579645 -1.568347 -2.785607 0.196640 0.143565 -0.758850 0.227115 -4.670107 -1.266626 2.271941 2.208503 1.585884 1.111329 0.994099 0.366673 2.376696 1.001968 1.431521 1.772245 2.247146 -0.718549 0.374612 -1.685877 2.423369 0.924470 -1.287390 -1.054394 -0.509003 0.054166 -1.253799 -2.638647 -0.741226 1.139411 -1.999148 
java.lang.String#equals -1.534852 -2.407603 -0.216225 -0.184478 -3.381131 0.003392 0.694493 1.368877 -1.842848 0.253185 -0.286371 0.222129 -1.455341 1.380853 1.749791 1.002545 -2.689955 0.565852 0.501334 1.254258 -3.739738 2.125077 -0.621854 0.312032 1.890568 -3.523534 1.149938 -0.052952 -0.258819 2.142348 0.247852 -2.780198 2.135272 -0.000526 2.140177 1.365118 1.093884 -0.344266 -0.597684 -1.964932 -3.587617 -0.073830 0.952596 1.550402 0.015985 1.014116 0.253789 -1.073117 -2.771134 -1.933798 -0.617104 -0.861468 -1.183383 0.310495 1.411854 1.196956 0.368564 -2.351483 -2.640463 -2.901319 -0.983608 2.735975 2.361597 -2.243970 -1.013526 0.291085 -3.444580 2.647468 1.165869 0.940050 -1.838762 -0.468830 0.270022 -1.253312 -1.516786 2.549388 -0.715513 -2.133137 0.801495 -2.540555 1.698979 2.077339 0.306656 2.483021 0.938607 1.744229 2.605248 0.520666 -0.400274 -1.996309 -0.091578 -0.342628 1.856682 -0.206007 -0.608099 -2.972147 2.154611 -1.123281 2.577827 1.323825 
element 2.515876 -2.903213 -2.445930 1.228478 -1.795130 -0.743440 0.615558 -1.139741 1.427504 0.035794 -2.898396 2.154599 0.383022 -1.893545 -0.977058 -0.183235 0.251154 -2.538487 2.830415 0.361406 -0.834424 -1.010604 -0.516102 -1.595014 -0.624120 -0.772923 -0.032879 -1.114732 1.758844 -0.417731 0.052184 0.745941 -0.035062 -1.761250 -0.450409 1.051804 1.255497 1.382691 -0.905885 -0.112527 -0.427844 1.762215 1.603136 0.798458 2.801358 1.501994 -1.171584 1.940957 0.076860 -0.216152 -1.400486 1.845894 0.543798 -2.220546 0.670015 0.547830 0.513137 1.454455 -2.094203 -2.620335 2.855837 0.370443 0.396413 0.536029 -1.418751 0.848143 1.306726 2.900644 0.905953 2.932171 -4.597257 -0.793665 0.954002 0.245281 -4.252471 1.508223 -1.648259 -1.601304 -1.817671 -2.648547 -3.163212 0.965918 -0.538879 2.368871 2.813154 4.825707 1.302235 0.697149 -1.770377 -1.064739 -0.735287 1.182036 -0.805940 1.318860 1.209166 -0.421825 0.246690 3.389254 -0.413971 1.397658 
java.lang.StringBuffer#append -1.189968 0.625755 1.324733 -1.445906 -3.943535 2.438507 -1.194950 -1.839645 1.081133 0.926446 -4.103846 0.127232 -0.244508 0.613310 1.200482 -1.000856 1.739311 -2.715517 -1.712730 1.264953 0.409805 2.130861 -1.221578 0.148186 2.428202 0.153832 2.574713 0.946057 0.653902 0.332316 1.230663 -2.015121 -1.093558 -2.187430 -0.584528 4.397427 -0.713572 -0.093046 1.249799 -0.059798 -1.547224 2.614153 0.191805 -0.357633 -1.820069 0.435733 -1.114875 1.231805 -1.701103 0.681810 0.048553 2.458933 -1.168384 4.696895 -2.784987 -0.752738 -2.964906 -0.407174 2.496178 -2.799774 -1.087592 -3.486900 1.919384 -3.032474 -3.562470 -0.255774 4.665229 2.330429 -0.549023 -0.160154 -0.331933 1.640510 -0.414636 -0.341209 1.432845 4.220312 -0.767824 0.652512 -2.079000 -1.114797 -0.163434 3.249031 1.435330 0.368400 -2.357401 6.480709 2.815345 -2.220064 -1.056209 0.663205 1.848820 1.439130 1.999950 -3.602439 1.402257 0.992361 -0.342395 1.766832 6.415336 0.957943 
name 1.364633 -1.292581 -1.202674 -0.914095 0.983409 -0.536749 -0.796937 -1.158020 -3.116658 -0.225344 0.133289 3.387912 -1.388468 0.762903 -0.020875 -2.942760 -3.708879 -0.217177 0.042682 -1.149657 -2.020797 -1.120587 2.107987 -2.998199 -0.788846 -3.766220 1.451235 -0.548399 -0.600578 0.420814 -1.337841 0.157127 -0.421827 -3.774725 3.133884 -0.435703 0.351935 -2.772012 -3.139985 1.024919 0.532268 0.522893 0.610709 -0.579933 0.392733 2.659393 -0.720342 0.556451 -1.919321 -0.787097 1.194959 -1.616974 -1.316645 0.043200 1.622799 -1.134228 -1.368944 0.327599 -1.834935 0.294384 0.108179 2.602094 1.942062 -2.254799 -0.303128 -0.186108 -0.568871 1.644120 0.627846 2.517907 -1.008965 -1.254689 1.472182 -1.936975 -2.327893 0.640927 1.392234 0.248170 -0.215152 -0.210387 -2.065653 -0.274853 -0.035140 -1.773074 0.752941 3.397592 1.202259 -0.388480 -0.855186 -2.063080 -0.782475 0.738900 1.927078 0.009366 -0.037001 -0.997706 1.110788 0.912822 -0.200802 -0.811694 
next 1.522494 -1.061171 2.807073 -0.346201 -1.901145 0.237879 -2.428093 -2.030432 1.358280 -0.430799 -2.354807 -1.894700 -0.244062 0.715690 -2.008521 -1.132458 -1.265099 -1.193850 1.064083 -3.178035 -2.624578 3.015893 -0.267436 1.408172 2.136418 0.955377 0.224021 -2.284177 3.893566 -0.471725 -0.109932 -0.182185 0.343519 -1.436123 -2.034468 2.488151 2.483443 -0.471035 1.750855 0.968368 0.455683 0.907805 0.409025 -1.721921 2.763264 -1.995271 -1.916523 1.110008 -0.206598 -0.677918 -0.920164 0.362890 2.156423 -1.255819 1.451510 -0.229678 1.920605 1.686226 -1.227795 -2.159499 1.392890 -1.030573 -3.836180 -0.559601 -0.555386 0.251762 1.087402 4.137241 0.417360 0.098702 -1.245902 1.877810 3.425722 -0.213183 -2.038957 0.904206 -2.846796 -0.612631 -1.700511 -3.327538 2.609881 3.298280 0.819953 3.196912 0.819015 3.585104 1.706720 0.389606 -1.555438 -0.990113 -0.089330 -0.754968 -1.005790 1.216428 1.690280 -2.043428 2.876869 1.874861 2.390669 1.642594 
java.lang.StringBuilder#append 1.380963 0.388070 4.293726 0.427359 -0.631974 1.524926 -0.938610 -0.082653 -2.165133 -0.333972 -3.966491 -1.407040 -0.669519 -0.220073 1.808620 -0.497737 -2.037631 0.906090 -4.318549 2.279869 -1.705970 -1.168232 1.562066 2.785417 -2.662391 0.117144 1.323295 0.743404 1.996405 -2.141359 0.084898 1.678119 -0.474112 3.455132 0.274089 0.956853 -0.101264 -1.733171 0.116373 -0.112325 -2.948108 2.225774 -2.613998 1.259890 0.740767 -0.126736 -0.716874 -0.272740 0.758526 -5.023251 -0.458159 -2.279597 2.784204 3.913796 -3.539536 -0.951540 0.331775 2.428752 3.536077 2.952653 0.860846 1.254509 0.395809 -4.500193 1.460908 -0.501070 0.140326 0.017621 3.271227 -1.158748 -1.356403 1.803681 1.060019 -0.007324 -0.362836 2.208455 -2.101363 -0.059939 1.977967 1.259364 3.133434 0.770000 0.764956 -2.669800 -4.299767 2.733592 1.205585 -1.297799 -0.485825 -1.494617 0.632130 3.344239 -0.679095 -1.568560 -2.148186 0.999239 1.181797 -1.333871 2.220485 2.595752 
length -0.630294 -1.264386 1.754414 -2.339947 0.312592 0.294949 0.988315 -2.032347 -2.781979 -1.524638 -2.802222 1.191305 -1.088381 -1.703159 -1.089327 0.929251 2.343213 -2.574198 1.021749 1.724653 -0.655539 -1.585706 -2.140449 2.077090 -0.029037 0.962050 0.127877 -1.365283 2.304276 -0.202502 1.597416 -1.229744 1.174542 0.115084 1.360824 2.534253 -2.970143 0.384251 -0.241568 1.861475 -3.790633 -0.704747 3.849663 0.392656 -0.238017 1.072714 -0.312775 0.537318 -0.470812 -2.392616 0.822950 -0.496743 -1.971622 0.533086 -0.235868 -0.401870 -1.516875 -0.167992 1.336946 -1.675329 -0.866436 1.509723 1.677040 -2.358859 1.584869 -0.039140 0.618018 1.507644 -1.310372 2.368661 0.342725 -0.906894 0.544844 0.547783 -1.365732 0.895945 -1.554211 1.176508 2.616120 -3.289207 1.254345 0.946910 0.188410 -0.072102 -3.767910 3.942689 -0.120442 0.865579 -0.462407 -2.827312 0.516145 2.263166 0.892651 -2.501468 -2.296028 0.571049 -1.333120 1.191292 -0.228466 -0.861512 
size 0.134222 0.050549 0.156576 2.116656 -1.036943 2.259426 1.437935 -1.288253 -0.845041 -2.102026 -0.705085 -0.930269 -0.373777 2.625179 -3.862623 1.986766 0.769754 -0.129722 -0.983626 0.353970 2.251571 0.593364 -0.405576 1.017373 1.492547 1.295597 -1.921091 -2.879636 3.457412 -2.412784 -0.782154 0.326095 0.126617 3.305118 -0.210830 -0.623271 -0.264093 2.754610 1.982243 -2.896834 0.278418 -2.085550 -0.224089 -0.498853 3.408080 -1.208559 1.840284 3.961516 -0.335499 -0.448456 -3.245875 0.191729 -2.151600 -0.104338 -0.197944 3.526829 1.185810 -2.010011 0.031572 0.945320 1.581740 0.032511 -4.230350 1.895582 -1.622865 0.193957 2.162775 0.975563 0.615509 1.077637 0.181668 -0.890013 1.705785 -5.047006 -0.009739 -2.743601 -0.600135 -0.828512 -4.131092 -3.148859 1.286680 3.364737 3.418581 0.706686 -0.846697 0.815855 1.376813 1.952776 0.131868 0.083635 -0.849771 0.468590 -1.516161 0.336819 4.737112 1.083137 2.973755 1.484499 -0.011027 1.160895 
println 1.314623 1.769211 -0.594125 -0.309967 1.046955 2.876481 -0.148591 -0.918353 -0.194981 -2.702916 0.710016 -1.659117 0.228966 1.160719 -1.964323 -1.137962 -0.563067 -1.004126 1.233489 0.579418 -1.590162 -0.434212 2.587368 0.566342 1.948112 -0.795101 -0.994605 -3.700222 -2.261665 2.439902 0.475847 -1.373210 0.999777 -1.386538 -1.166896 2.161218 0.431409 -0.056942 0.105531 -4.224173 -0.588156 0.103060 1.649235 1.073182 -0.631691 -4.290048 -1.974790 -0.337268 -5.350179 -0.660733 -0.784684 0.353938 1.361617 2.894732 1.614411 1.830734 0.160905 -1.085040 -0.233219 -3.443968 -1.537183 1.276233 -1.491170 -0.134448 -1.130816 0.336767 0.278702 1.182437 3.044535 -1.060315 1.088668 -0.325233 1.052778 2.004292 -0.021716 1.482937 -1.091266 -0.343092 -1.093525 -2.065580 2.308858 1.323728 -2.442807 2.393313 -0.139840 -3.182730 1.255525 0.056255 -1.315486 -1.209690 0.370461 0.835997 1.065510 -1.082892 0.382782 0.081226 1.290103 0.794806 1.932575 2.277876 
put -2.180405 0.247081 0.162559 0.589048 -2.536502 1.222997 0.032550 -1.823246 -2.124690 -0.998167 1.208308 -0.376341 -0.578666 -1.054276 -3.076457 -0.883545 1.125961 -0.220895 0.237245 -2.407533 1.590452 0.442102 -0.575773 2.558996 2.585042 -0.624088 0.926296 -0.139487 2.607654 -1.809436 -3.203026 -0.099264 -0.158232 0.228459 -1.046117 1.070913 -0.226120 0.553791 1.617185 -2.126944 3.759378 0.581896 -0.377984 -3.346672 0.376706 0.367424 0.265143 -1.189980 0.804004 -3.037944 -1.008164 -1.471981 -1.567790 1.064643 -0.772564 1.648943 1.626163 -0.858787 -1.456068 0.666767 2.531591 -1.470101 -3.538774 -1.250135 0.260030 -1.676721 -3.048936 0.566068 2.251251 -0.389085 -1.110244 -1.212916 2.543202 -1.171072 -0.245231 -3.334664 -1.011930 -1.194396 -1.335665 -3.268634 2.195893 2.060967 3.340706 0.406076 1.637517 -0.613617 3.323726 -1.791399 0.273387 0.732220 -3.616844 -1.151786 1.581252 -1.264484 -1.044881 -0.740820 2.542611 4.353925 -1.988328 1.613398 
creat 0.619923 -4.346188 -2.770987 -1.649856 2.928800 1.531682 -1.719823 3.595375 -4.180321 3.717670 3.457994 1.830931 1.662631 -3.566748 1.582704 -0.255752 -1.770315 1.825625 0.307482 2.155861 0.134038 -1.269121 0.035876 -0.269546 0.223619 0.932827 0.167617 1.280387 -0.297949 0.122627 1.462986 0.069959 2.593890 1.467810 0.309055 0.942939 0.074975 0.541375 -1.152953 -0.202920 1.193831 -0.871677 -1.640970 0.273058 -3.055006 3.841206 -0.717880 -1.322554 2.027975 1.338279 -2.551970 1.666535 -0.039051 0.916420 0.118497 -2.243981 -2.672410 4.757612 -0.375273 0.504274 -1.033154 -0.725368 -1.159604 2.922944 0.996243 0.112009 -0.799506 -1.114326 -0.178138 -0.043309 -0.577637 -2.202035 1.721929 -0.907854 0.644931 2.870461 1.503168 0.571824 0.177004 3.484073 0.366606 1.137386 -1.878915 0.755149 1.441828 -0.925335 -1.344552 -2.276273 -0.690122 2.902228 -1.939078 -0.045372 0.492472 -0.125252 -0.195544 -2.241493 -3.029405 1.680086 1.648706 -0.777966 
given -0.021635 1.478378 0.855317 -0.235654 2.048255 -0.242539 0.401183 -0.771114 2.250851 0.756456 1.829324 1.433103 -1.034695 -0.367508 -0.484878 -0.346100 0.345144 1.231619 -1.764748 -0.149367 0.482842 -1.604372 0.954999 -2.801188 0.506469 1.015777 0.390066 1.348516 -0.118809 -1.320732 0.555572 0.046924 -0.028684 -0.994813 1.413931 -0.941100 0.816015 -0.113029 0.009023 0.803519 0.544917 1.728055 0.369235 0.010320 0.278063 3.024117 0.146797 -1.906059 0.284805 -0.627782 -0.898743 1.123394 0.537790 -2.066089 -0.720057 0.220441 -0.729858 -1.050539 -0.040927 -1.500936 -0.948211 0.263635 0.829344 0.298994 2.280096 -0.763257 -0.284858 -1.074687 -1.600416 -0.855704 -0.999136 -0.177279 -0.149400 -2.562418 -2.062361 0.418345 0.882862 0.502713 -0.415188 -1.243004 0.262755 0.916611 -0.203136 -3.234998 0.292208 1.436440 -0.363953 1.946099 0.521929 -0.381929 -0.188920 -0.772619 0.246854 -0.798200 -0.926185 -0.370852 -2.514924 -1.683091 -2.197791 -0.917031 
object 1.417226 -0.400002 -0.903163 -0.514365 -1.815895 1.202712 0.018757 0.151361 2.103056 2.222153 0.902913 -0.974804 -1.320704 -1.197304 0.985743 -0.229384 -0.283623 0.692070 0.899894 -2.363663 -0.117854 -0.212804 -0.599604 -2.301803 0.424161 -0.092462 1.848233 2.644545 -0.350453 1.374679 1.103602 0.867136 -1.189947 -2.830454 0.693463 1.376483 0.601283 -0.065955 -0.771296 0.911339 0.972264 1.022534 -0.480848 -1.067866 0.232838 1.506310 -0.894431 0.094623 0.571460 0.534312 0.942667 1.713951 1.303371 -1.312318 -1.215071 -0.293093 -1.135449 1.345933 -2.740500 -0.526150 0.625007 0.123707 0.910365 -0.073209 -0.793712 -0.404208 1.423920 1.323001 2.046862 0.682744 -2.165066 1.469636 -1.862323 -2.718611 -3.474648 -0.642332 1.097969 -1.007946 -1.693160 1.304013 -1.753429 -1.364439 -0.197091 -1.203735 3.514560 1.530200 -0.432257 2.086657 0.923423 -1.092399 0.159198 -0.106049 -0.265337 3.948580 -0.987848 0.795647 -0.896372 -0.710065 1.441975 -0.023099 
java.io.PrintStream#println 1.416216 1.646036 -1.472196 0.157574 1.266946 2.704445 -0.247864 -0.548078 -0.697311 -2.643432 0.883249 -1.903359 0.074609 1.828647 -1.780928 -1.523608 0.048250 -1.038704 1.347423 0.953384 -1.987576 -0.590838 2.499287 0.426910 2.083071 -0.955312 -1.163338 -4.014300 -2.361371 1.956877 0.193824 -1.071402 1.236673 -1.311122 -0.878035 2.595859 1.180106 0.473932 0.295539 -4.133517 -0.233574 -0.602723 1.748093 1.244246 -0.813802 -4.181414 -1.971709 0.421409 -5.183523 -0.583877 -0.773233 -0.070485 1.169713 2.886920 1.784919 2.331151 0.412224 -1.416725 -0.232623 -3.174146 -1.799048 0.769945 -1.322918 0.394547 -1.219762 0.756251 -0.378879 1.274785 3.290454 -1.383063 0.972777 -0.194948 1.173138 1.255098 0.146128 1.389260 -0.991398 0.070694 -0.822387 -2.055295 2.466898 1.824844 -2.752511 1.992920 -0.315337 -3.677481 1.377451 0.378811 -1.865355 -0.696476 0.649288 1.084774 0.704089 -0.876789 0.705356 0.071077 1.188513 0.674015 1.721512 1.978469 
java.lang.String#length -1.525179 -0.090184 1.436202 -2.822513 0.056063 0.397189 0.661902 -2.095245 -2.619590 -1.210819 -2.486062 0.726690 0.389992 -1.201670 -0.387901 0.956239 2.808517 -3.051426 1.043715 2.789257 -0.695138 -1.754809 -2.294302 1.788834 1.175707 0.170677 -0.669005 -1.027871 1.916591 -0.160830 1.349811 -2.143426 1.913315 0.186010 0.111252 3.442655 -2.449366 1.032601 -0.003306 1.624170 -2.819471 0.132269 3.738191 1.400120 -0.626054 1.299455 -0.229172 -0.057858 0.678759 -2.323949 0.504259 -0.623544 -1.408592 1.516034 -0.171143 0.871493 -1.863140 0.068061 0.764671 -1.622274 -2.415899 0.808191 2.276384 -3.353790 2.443411 -0.763617 -0.205143 2.234513 -1.018856 2.341619 0.235221 -0.524212 0.365465 0.343826 -1.564648 0.422264 -2.142648 -0.297093 3.231929 -3.427613 1.134614 0.809315 -0.042242 0.758336 -5.038852 4.263476 -0.760344 0.743117 -0.645012 -3.025177 0.476560 1.396851 0.712545 -2.205860 -2.782785 0.387175 -0.765782 0.869389 0.347750 -1.583074 
write 2.628333 -1.842723 3.384673 -0.211893 -1.883016 0.755526 -0.541366 -1.049698 1.047644 0.649248 -0.259900 -0.182190 0.256226 -1.220944 -1.622573 0.129079 -1.545416 -0.720530 0.191485 -2.344659 0.078803 -1.977666 0.193760 -0.391075 2.068006 1.051753 -0.207290 -0.366634 0.613653 2.223954 2.768379 3.739673 4.043039 1.285834 -1.004183 2.950870 1.582533 -1.171990 -0.429128 0.072795 -1.112624 0.631574 -0.312547 0.194842 -0.816894 2.903104 -2.365407 0.535982 -0.259320 0.952659 -1.608107 -1.031726 1.195175 4.592023 -1.972237 -1.943583 -2.625054 -0.066056 0.163494 -3.731504 1.343747 0.495169 -2.297837 1.377002 -0.756940 -3.855510 2.620510 1.667009 0.202938 1.568395 1.095306 -0.362920 -1.679838 2.161654 0.514194 0.310675 -0.867675 0.554400 0.435917 0.230390 -0.619609 -1.036049 1.050609 1.937632 -0.841287 -3.239461 1.863888 0.112322 0.004337 -3.850437 -0.602525 0.975198 2.251095 -1.434215 -2.100583 1.089149 2.232721 1.888541 1.093965 0.763951 
of 0.674266 -2.569799 0.255773 -1.508702 -0.730664 0.058118 -1.796431 0.152251 -0.695113 -0.827561 -0.826622 -1.148290 0.534568 0.802774 0.463581 1.620586 5.292464 -3.683597 2.675455 0.195439 -2.668345 -0.071343 -2.718968 1.568911 -3.449770 -1.105093 -0.190110 -2.216293 1.259494 0.297742 0.130901 -5.733218 2.550632 -1.530850 3.268344 1.961472 0.221049 -2.646528 -0.818827 2.958363 0.963496 1.228005 1.728685 1.736598 1.220529 1.516417 0.569185 -0.894624 0.861265 -0.896935 2.103418 -1.470051 0.037231 1.499878 0.566963 -0.413285 -0.022880 -0.928639 -1.518822 -3.560277 -0.322788 0.113774 1.621289 -4.377349 -0.034927 -3.197684 -2.600132 -1.517176 1.719759 -0.509051 -2.217192 -1.413286 1.848526 1.666923 -0.099973 -1.389367 -1.943131 -0.840043 0.112112 -0.686757 0.848377 1.801987 3.747422 -0.371626 0.509516 3.253886 -2.458457 -0.673858 0.334939 -2.133250 2.297654 0.787524 -1.495551 -1.296037 -3.914897 -0.094069 0.204464 3.707049 0.552063 0.717142 
method 0.027282 -0.357730 -1.167197 0.140925 -0.850934 -1.993477 -1.389869 -0.211103 0.106545 0.376335 -0.148963 -1.293242 -1.191978 -0.224465 -1.120267 -0.622626 -1.991112 -0.393134 1.526106 0.006701 -0.851562 -0.490456 0.721415 -2.161964 -0.186181 -0.844562 1.950568 1.334421 -1.992088 0.180052 -1.413359 -0.642530 -0.254312 -1.927097 -1.788468 -0.067441 0.113175 0.412011 -1.620303 -1.353770 -1.057057 1.871398 0.478741 0.579337 -0.401438 0.771110 -0.742947 1.733980 -2.404149 -0.400880 -1.751182 3.274192 -0.045808 2.330720 0.603256 0.832037 0.312902 -0.226515 -0.756831 1.018807 0.526845 1.352956 3.172965 -0.819879 1.100604 -0.123768 -1.579080 0.720446 0.092723 2.194086 0.139462 2.623935 -0.844738 -1.339457 -2.383550 -0.779056 2.205791 -1.141445 -0.621740 2.336403 -1.731987 -0.653435 -0.524794 2.109853 0.075404 -1.157909 -1.545782 0.581459 -0.506398 -0.483710 1.200819 -0.960756 -0.356522 0.796754 0.550078 0.898151 0.978211 -0.659061 1.093488 -0.311263 
list -1.081990 0.047281 -0.543639 0.464896 1.870500 1.095997 0.910685 2.189335 -0.489502 -0.909910 0.183347 1.075910 -1.442414 1.383304 -0.840540 0.357872 -1.124166 -0.458810 -0.024816 -1.710946 -0.473531 2.173419 0.178151 -2.315974 0.938699 0.034445 -2.189473 0.607504 1.474059 -2.144282 -1.709429 0.922501 -0.389353 2.805434 0.227736 -0.505741 1.443532 2.506544 0.991967 -0.117993 1.561488 -0.151827 1.393252 0.132867 2.267081 -0.630715 3.147571 1.618206 0.478537 0.600478 0.211811 1.918771 0.446604 -2.573219 1.121695 1.899898 1.263508 1.429037 1.283444 2.936493 -0.864416 0.310900 -1.221074 2.780854 0.845843 1.857825 2.324084 -1.290019 1.406748 0.584054 0.301702 -0.812056 2.009074 -0.549932 -1.428093 -2.365817 -0.548677 0.293025 0.617269 -0.534767 2.087279 0.580752 2.618377 -1.181558 -0.242797 4.134834 2.045187 3.167845 -1.480395 1.059396 0.866967 -0.200185 -2.046798 -0.897290 2.127979 -0.191597 -1.148243 -2.393308 -1.263330 -0.334544 
java.lang.IllegalArgumentException#.new -0.342298 -1.629266 -1.067876 -1.378067 0.731032 0.049753 4.056337 2.539182 2.151282 3.901063 0.959047 1.765572 1.457000 -0.754611 2.623716 -0.049115 2.587395 5.837799 -1.622157 -0.507734 -1.259098 -1.250950 -1.002607 -3.567506 -0.753698 1.756889 1.811475 0.173004 -0.922957 -0.384215 -1.173974 -0.518717 -0.314404 0.209133 0.346768 0.423660 1.188110 1.521287 0.047759 0.707874 0.859386 1.505521 2.473946 0.379622 -2.927089 5.217982 -2.466123 -3.278573 4.728203 -0.741811 -0.642187 -0.515658 0.611284 -2.455518 0.257923 -1.577499 -2.755666 -0.472132 0.824672 0.617380 -2.621973 -0.738087 3.782478 -0.978488 4.213992 -0.448684 -0.369769 -1.923769 -0.126723 -3.146575 -1.982826 -0.159597 -3.109703 -2.285567 -0.751316 1.182847 -0.832029 -0.789660 2.477230 -0.127751 0.132001 0.745508 1.010918 -5.492113 -2.576693 -1.027823 -1.865141 -0.025159 0.613634 0.498562 -0.122961 1.586660 -0.639215 3.158821 -1.101340 -0.304040 -2.675641 -3.217692 -1.771041 -4.466458 
int 2.804166 -3.187580 1.849491 -2.820139 -2.443501 0.216734 0.507779 0.778073 -0.175169 2.340429 0.993950 -2.606812 -0.237343 -0.183272 -0.876831 -0.985696 1.965928 -1.229294 1.930671 1.772151 0.260891 0.303220 -0.556933 3.604856 1.434794 -2.166472 -0.383437 -1.986494 0.962384 0.100234 2.522019 -1.349724 -0.563053 -3.146131 -0.928903 1.803067 -0.839750 -1.429673 3.528062 -1.365475 -0.195987 -0.545487 2.487641 -0.145714 -1.450258 -2.273523 -2.796484 2.012230 -2.246526 -1.946352 2.636350 -1.400591 0.600443 1.784194 -2.989324 0.961629 -1.086227 -1.365957 -3.016401 -1.258795 -1.396498 -0.468673 -2.618793 -1.263554 -0.625789 1.263068 -2.628503 0.583928 1.196208 0.229859 1.413264 0.570913 -1.719817 -0.602064 0.125531 -1.940297 -2.535205 -1.825311 1.136926 -1.458643 0.513249 3.352950 -0.652500 2.600121 1.731819 1.700379 -0.095615 2.570394 4.164183 -3.134257 1.113457 0.156371 -2.709758 -0.120499 0.769182 -0.648299 1.140918 1.521562 2.822764 1.617446 
index 2.701739 -1.595766 -0.337490 -1.313819 0.063841 -0.561177 -1.348413 -1.213292 -1.138035 -1.872959 -1.078605 2.267189 0.238052 -0.866361 0.325100 2.362227 3.834152 -4.779288 1.549670 -1.355097 -1.452284 -1.869560 -1.307326 1.337309 -2.255620 -0.401237 -1.090725 -2.951658 2.567492 -0.010990 -0.636931 -4.629776 1.991357 -1.269265 3.610517 -0.344899 -0.692241 -2.101352 -1.216645 1.634547 0.896826 0.177935 2.419888 1.255749 2.093487 2.490981 1.536289 1.050999 0.884149 -0.027065 1.760274 -1.208475 -1.010253 0.418810 0.959995 0.569921 0.768266 -2.037612 -1.446643 -1.677990 -0.920562 3.378543 2.789054 -3.098186 -0.635860 1.079522 1.500802 1.273852 0.771869 1.638939 -0.258895 -1.835497 1.335775 1.151088 -0.418641 -1.621953 -2.888772 -0.590601 0.029150 -1.685893 0.598340 2.315509 2.402154 -0.199848 -1.457023 4.489797 -2.522981 0.142620 -0.792753 -1.167153 0.932520 -1.358162 0.336511 -0.642249 -1.181819 -1.762230 -0.885565 3.692199 0.093127 0.145588 
specifi -0.232703 0.444712 1.058433 -0.798630 1.234686 0.484215 0.913879 -0.051722 3.384907 1.455854 1.378067 1.353235 0.564354 -0.745834 -1.986890 -0.527302 2.571733 0.710199 -2.845612 -1.307553 0.210871 -0.591688 0.510255 -2.236930 0.622524 2.280193 -0.066080 2.009387 0.491217 -0.883820 -0.209129 0.412813 0.092768 -0.650899 1.661958 -0.648775 1.516167 -0.398576 -0.699433 0.025683 1.584569 0.980744 -0.581758 -0.303509 -0.122751 4.642446 0.458517 -2.990966 0.347020 -0.450002 0.235556 1.599013 2.031480 -2.328197 0.408392 0.212987 -1.283956 -0.414932 -0.743370 -1.659118 -0.335935 1.709469 0.480624 0.592303 2.579517 -1.184814 0.497034 -1.684376 -1.229647 -1.781245 -0.301866 -1.361811 -0.459244 -1.725736 -2.607157 0.372102 0.923306 -0.172615 -2.086855 -0.543846 0.313458 0.744440 0.117313 -3.406440 -0.224072 0.924119 -0.445132 1.543086 1.401277 1.216682 -0.299809 -0.090097 1.426155 0.948847 -0.900015 0.018096 -2.644456 -2.390754 -1.980907 -1.281122 
file 0.846956 2.086382 0.083106 -1.088639 0.511875 3.916716 1.070746 -0.032165 1.685257 -2.765621 1.567052 1.989166 3.218868 1.371273 1.572670 -0.697077 -4.986178 -0.517967 0.762706 -1.744823 -0.783650 0.621298 -2.445760 -3.787458 1.799113 0.359693 -2.556179 0.761621 -0.111171 -0.068184 0.786705 1.050073 0.764047 -1.841868 1.880044 0.696911 1.018449 -0.608143 -1.609271 0.745681 -0.619906 -1.214325 1.128992 1.078136 -0.590404 -0.589503 0.241389 0.126856 2.286684 1.551051 1.629200 0.068384 1.581789 -0.037357 0.990244 1.271690 -2.095269 0.345505 1.136426 -0.239916 0.559961 3.725841 1.247229 1.385893 1.975888 0.636804 -1.403002 0.087941 -1.037725 2.470063 1.562645 -0.775692 -0.474680 4.309369 1.579688 -0.461121 -0.972055 3.062656 0.005389 0.805466 -1.312613 -2.120515 -1.931029 -0.811056 -2.541021 -0.860334 1.863541 1.271484 1.230706 -0.564906 -0.368692 -0.671348 3.211185 -1.737601 -0.768834 1.065586 -2.147308 2.188690 0.054887 2.630519 
at 1.189157 -2.173482 -0.167795 0.270075 0.172204 -0.501324 -1.735969 -1.232322 -0.410308 -1.138756 -2.667798 -0.585167 0.084169 -0.597992 -2.823692 1.956856 3.745957 -0.876026 0.179948 3.306257 -0.158971 -2.237843 -1.968232 2.722458 -0.655277 1.368436 -0.053543 -0.081990 3.157634 0.061844 1.202071 0.736323 1.597021 0.437730 1.772271 1.311262 -4.082698 0.098152 -0.528966 1.308750 -3.041902 -0.070470 1.312628 0.859036 -1.808738 -0.434512 -1.746576 1.047281 -0.835559 -0.101508 -2.545486 1.404720 -1.544210 -0.849591 0.072680 -0.759897 0.840828 -2.797352 0.464197 -2.890286 -1.140636 1.140842 1.813073 -1.661380 0.167469 2.036776 2.088181 2.857506 2.381036 2.437361 -0.195496 -3.700287 1.499562 -1.285865 -0.907230 -0.813616 -2.959465 1.219985 0.672951 -3.407944 1.223473 1.135049 2.883982 3.015066 -3.912109 3.055527 -0.828031 1.190501 0.230754 -2.122602 1.628147 -0.643421 1.181959 -2.324959 1.127168 0.581691 -2.413628 0.935163 1.029990 -0.767952 
new -0.504736 -2.338837 -1.017901 -1.380700 2.400537 0.948547 3.797507 1.372754 -0.998805 -0.340525 3.840133 0.732969 -0.011186 -1.714423 -1.931371 -1.407097 -1.008060 2.308024 -0.451891 1.060621 -0.195149 -0.912479 2.500691 -3.086441 0.224593 0.009682 0.610624 1.619415 -1.592371 2.068661 0.310311 -0.301865 -1.628575 -0.717423 0.004223 -0.597118 -1.641958 -0.794381 -1.743545 -0.495586 2.163276 0.090147 0.589570 -0.521872 -2.861766 4.245958 1.467794 -0.347784 0.611608 -0.022831 -1.435450 1.155753 -0.034160 -3.526407 -1.414031 -2.841664 -0.762686 2.540883 -1.712948 -1.486133 0.520890 0.778202 -0.892936 1.961702 1.632439 -0.036643 1.429075 -0.620491 -0.461618 -1.635526 -1.272292 -1.976939 1.331941 0.664397 -0.476514 -0.015786 1.110195 -0.127727 -0.837238 0.134601 0.678834 0.337396 -1.905298 -3.235587 0.076159 -1.722775 -0.621599 -0.217969 1.318497 0.370953 -2.594809 -0.457648 2.289615 1.728265 -0.271197 -0.062157 -3.313880 -0.628105 -0.338323 -0.291605 
properti -0.775035 -1.978711 -0.214020 -1.347333 0.498350 0.867782 -1.945878 1.256268 -1.034026 0.044741 -1.960147 -0.039153 -0.032224 3.027474 -0.207669 -2.494654 0.012975 -3.016429 -1.992654 -0.624234 -2.075213 -0.483026 -0.380845 -1.322841 0.124940 -3.877257 1.889232 3.874514 0.198230 2.505682 -0.024359 1.416823 -1.585737 -0.809125 -1.240330 0.326780 1.046136 -0.716571 -0.670546 -1.176680 2.394825 0.120184 0.662681 -1.519254 -1.646329 -0.132536 0.079110 -4.141465 1.774236 -1.969964 1.710580 -0.140257 -0.491829 -0.338175 -0.207938 0.451866 0.736339 -0.686926 0.950969 0.733664 0.208653 4.218919 0.399728 0.054080 -0.041689 -0.891845 -2.902298 2.921076 -0.068427 0.700767 1.232167 -3.288096 0.002768 2.176881 0.108986 0.059964 0.652372 1.625419 -2.160897 0.550127 -0.471119 -1.085454 -0.750353 0.001278 2.693727 -0.264787 -0.308805 -1.716665 1.854679 -1.531618 0.412390 1.675503 -0.920322 0.239645 -1.841883 -0.970912 0.039583 0.343552 1.211590 0.833856 
contain -1.601205 2.552441 1.277289 3.944821 -0.243430 -0.122350 0.224975 -0.845288 -0.918108 -1.125034 -0.741958 0.446214 -1.687245 1.954682 -1.810012 1.665445 1.255339 -0.416236 -3.030515 -0.670289 0.426754 0.386003 -0.521940 1.277479 0.805465 -1.853996 -3.268822 -1.789674 1.658245 -1.004500 -2.718061 -0.901761 0.710413 1.121859 0.375215 -1.586963 3.251451 -0.210203 1.235807 1.107144 3.407110 1.226058 -1.369274 -1.729235 1.169312 1.799805 0.037328 -1.588237 0.156300 -2.117993 -2.694722 0.270769 -1.232494 -1.140928 -0.419379 2.838495 1.186135 -0.281327 -1.350701 1.747616 0.021475 2.019437 -1.973392 0.252052 -0.544666 -2.033433 -0.333879 0.507378 -0.617628 -2.144863 -1.037150 -1.534296 -0.267172 0.129026 -1.069541 0.124079 0.115619 -0.519114 -1.184842 -5.427439 2.770861 2.296495 4.737766 -1.890971 -0.460133 1.188070 1.396290 1.408343 -1.761391 -0.504188 -1.631001 -2.246862 -0.733640 -2.456911 0.669171 -0.156414 -0.015577 1.007160 -3.949515 -0.921945 
pars 1.070001 -3.447148 0.941552 -4.500243 -2.435704 2.363550 0.879258 3.093858 -1.421094 1.165598 0.255942 -0.215153 -0.482941 -1.156601 0.253035 -0.201419 -0.967939 -1.848167 2.194091 4.049699 -1.767356 -1.650492 1.853816 2.875591 2.800547 -3.687539 -0.521977 -1.376185 1.152161 2.189713 0.565203 -2.887408 1.498998 -0.304506 0.490832 4.242477 0.604185 1.061246 3.346616 1.000235 0.792270 -2.805457 4.145660 0.766392 -1.144949 0.077142 -1.479986 -0.224327 -3.031799 -2.021107 0.622655 -1.320363 -1.280816 0.312162 -1.321320 -0.160032 -0.173599 -1.080798 -2.317319 -1.553422 -2.268161 1.663764 -0.603847 -2.164884 -0.092981 -2.402349 -2.756503 -1.323780 0.064952 -0.367039 -0.094967 -2.528460 -1.581182 0.072926 3.034257 0.915037 -3.443399 -1.717662 3.140885 -3.812723 1.890051 1.564248 -0.555494 3.540465 0.021760 0.332551 -0.924837 0.220469 1.766457 -3.474889 0.460740 -0.009098 -0.848235 -0.437904 -1.162279 1.053982 -0.879258 -1.284114 -0.530129 0.437477 
substr 0.603897 -1.687687 1.373770 -2.969282 1.059591 0.739907 -1.041081 -1.487862 -2.223037 -3.071954 -2.713890 0.430880 0.493198 -0.744910 -0.145529 0.988468 1.707868 -5.140537 1.811672 0.307611 -2.851822 -1.514770 -2.217208 1.952773 0.500446 -1.654438 -1.701075 -2.356097 1.887268 0.424951 -0.932277 -4.320957 3.672734 -0.846987 1.494563 2.964453 -2.874684 -0.327135 1.150093 2.332247 -0.254063 -0.602238 4.405378 1.635255 1.182693 3.062563 -0.455545 -0.242785 -0.413576 -2.814765 0.618583 -0.445774 -1.295073 0.543724 0.110265 1.995797 -1.223739 -1.303213 -1.330158 -2.881825 -1.175348 1.744493 2.728606 -6.489788 2.218624 -0.265200 -0.357678 3.027331 0.978944 2.525947 -1.905576 -0.937178 2.899288 0.452976 0.044340 -1.085665 -2.770644 -1.052068 2.881397 -1.963876 1.253245 2.188570 2.535053 0.340335 -3.355591 3.674008 -1.784892 -0.589254 -1.654701 -3.057381 0.551579 -0.502539 1.009853 -1.866665 -2.274849 -1.296418 1.177775 5.272070 0.128627 -0.313212 
start -0.226967 -2.817507 1.350726 -1.035259 0.440291 -2.336477 -1.660288 0.694741 -0.520510 0.043077 -1.081565 1.548135 1.629804 0.224763 -0.843548 1.120571 -0.832593 -4.175881 -0.285729 -2.658875 -1.205157 -3.399249 -0.029732 2.282843 2.914988 -0.349253 -0.718820 -2.415668 1.694833 1.931355 -2.182814 -0.692149 1.019016 -0.428516 1.813597 2.721591 -0.040992 0.582433 -2.809083 -1.017064 -2.302786 -2.246976 1.312388 1.308385 2.298998 0.758922 -2.394707 -1.469118 -1.057176 -1.666440 1.117477 -0.176500 -1.629981 -1.780303 2.074286 1.226210 0.652895 -0.846772 -0.370171 -1.830099 0.422648 2.297354 0.810598 -0.941952 1.173078 2.592965 0.060909 2.262930 2.026493 1.445236 -3.014935 -1.051311 3.264685 1.219102 -0.579006 0.802474 -2.056665 -2.205885 3.127629 0.226072 -1.144623 1.376805 0.569015 0.086841 -0.219939 1.123910 0.016242 0.052027 -1.397822 -1.585933 3.316049 -2.058271 2.949917 -0.105442 -1.901602 -3.751719 -1.183423 1.325733 1.624444 -1.776843 
print 0.952089 0.031719 0.206539 -0.736478 0.380285 1.583256 -1.592377 -0.875650 -1.213885 1.884812 -0.168181 -1.796994 0.786181 -1.551751 0.370534 -0.822160 -1.019936 -1.457455 1.078872 2.421506 -2.703824 0.058153 2.577838 1.745948 1.782743 0.015745 -2.603839 -4.908285 -2.106143 1.568986 0.542765 -0.014840 0.298658 0.439053 1.104938 0.737090 -0.807546 -1.575650 -1.906747 -2.034655 -0.276134 1.285934 -0.041814 -0.052172 -1.857488 -1.341665 0.694741 1.197957 -4.187669 0.889659 -1.166378 1.591208 1.499915 3.413138 -0.313701 -0.996304 0.597674 -0.857543 -0.509494 -4.383408 -2.085606 -0.238602 -0.987071 0.238178 -1.119359 -2.187276 0.564886 -1.186021 1.503726 0.130589 1.687710 -0.345292 -0.754686 5.407283 1.472615 3.038641 2.164516 0.575009 -1.179599 -0.495950 0.292270 -2.970160 -2.490644 -0.302002 1.484879 -2.794152 -1.407362 -0.694771 -1.264104 -2.321935 -0.820308 0.323877 1.395683 -0.791777 -0.407226 -1.438651 0.802546 0.701618 2.613565 3.653378 
arrai 1.925414 -0.041918 1.436311 0.504697 -1.308815 2.794422 2.078570 0.740935 1.447093 -1.356673 -3.361814 0.003565 -0.309166 0.370908 -2.500462 -0.035387 4.271750 0.726296 -0.314847 -0.637444 0.656250 -0.448532 -0.151993 -1.865454 0.201562 4.027152 -0.641279 0.608389 1.578656 -0.445089 -0.089952 4.679930 0.056414 2.269943 -0.514410 3.642603 0.898561 4.221959 -0.332217 1.298940 2.442494 -0.766047 -0.434145 0.890074 -0.683517 -0.561085 3.036403 3.116509 2.284483 0.554301 -1.277385 -0.188207 0.116216 -1.147833 -0.609113 1.888910 -1.703221 0.573224 -1.874240 -0.295943 -1.550630 0.972374 -1.472948 -0.079099 -1.017315 -0.497956 3.318532 0.843191 0.867684 1.893704 -0.260991 0.297143 1.368823 -2.817313 -0.514306 -1.180146 1.146461 -1.398734 0.149016 1.325700 1.019758 -0.347120 4.983559 -3.164005 -0.719071 3.853267 -0.827624 4.959277 0.968802 -1.556701 1.692225 -0.826761 -1.058489 1.637029 1.164384 2.958511 -0.485112 -1.325094 -1.817524 -0.883347 
java.util.ArrayList<T>#.new -1.927557 0.026605 1.475755 -0.526179 -0.400750 3.228588 2.358276 3.704015 0.747889 -0.571794 -1.262976 -0.171874 -0.022448 4.826015 4.260431 1.562258 0.123384 2.970921 -0.733999 -1.341931 -1.414062 0.082864 1.891963 -3.525716 1.344976 -1.623516 -0.761090 1.809094 0.498201 -3.515400 -2.437381 -1.994981 -0.480164 4.322266 -0.861044 -0.743758 2.338514 3.587217 3.742682 -1.021865 1.136713 -0.161288 1.356668 2.372666 -1.140307 -2.455061 1.529841 0.396544 0.419447 0.502957 -0.581105 -1.154836 -1.543428 -2.657752 -1.290213 1.167020 2.011819 0.236657 1.963564 3.529878 -2.284806 -1.676172 -1.074959 3.213617 0.754322 2.703466 -1.044222 -2.238048 1.184865 -1.419832 -1.026808 0.923327 -1.003983 -0.015764 0.096610 -1.073707 1.142214 -3.167462 2.618337 1.749837 1.038005 1.185242 3.018383 -5.514471 -0.657874 0.426955 1.857327 0.649514 -3.765143 1.421221 1.530789 3.616159 -3.691080 -2.124343 0.293425 2.017821 2.899808 -1.791728 -2.973853 -0.130874 
java.lang.String#substring 0.517550 -1.641196 1.295468 -3.063472 0.962977 0.736372 -1.089489 -1.390899 -2.103165 -3.036220 -2.515481 0.285600 0.562260 -0.511229 -0.125880 0.849276 1.685224 -5.093269 1.938048 0.411653 -3.115881 -1.703733 -2.222609 1.903514 0.687289 -1.775644 -1.588262 -2.372262 1.764934 0.411171 -1.071303 -4.372858 3.752227 -0.831100 1.464514 3.112510 -2.819626 -0.396568 1.229037 2.119677 -0.107037 -0.452058 4.316106 1.797660 1.080208 2.910558 -0.620314 -0.431229 -0.419037 -2.879138 0.525221 -0.574799 -1.438892 0.594029 0.341354 2.052032 -1.337030 -1.371487 -1.434903 -2.805819 -1.424258 1.727196 2.678797 -6.569817 2.235847 -0.332378 -0.638526 3.071985 1.076489 2.524439 -2.026638 -0.893013 2.904969 0.417033 -0.027553 -1.192139 -2.751477 -1.203321 2.909050 -1.943181 1.155713 2.305261 2.471893 0.166963 -3.412261 3.614269 -1.847401 -0.580587 -1.752000 -3.094165 0.700251 -0.394080 0.975252 -1.952308 -2.365858 -1.387685 1.220127 5.320724 0.444028 -0.364597 
kei 0.436668 1.580919 0.647713 2.929289 -1.413268 1.704500 0.107446 -3.039313 -1.626960 1.479343 -1.568126 1.430094 -0.614569 -0.469567 -0.556433 0.050040 2.214461 -0.427943 -1.489009 -2.091076 2.991038 0.910857 -3.317636 2.214516 -0.877887 -1.467760 -2.553982 0.625596 2.283658 -3.446618 -0.803711 1.865558 -3.109183 -1.731997 -1.924695 -0.164397 0.640764 -1.330329 1.681391 -1.751043 3.462425 1.544967 -1.335142 -5.111076 -0.720701 -1.442384 -1.691014 -1.347744 1.765133 -2.334066 0.488990 -1.879558 -1.728941 1.551900 -0.782260 0.468695 1.018975 0.555713 -1.775108 1.973791 1.686990 1.674430 -2.936291 -1.521726 -0.605793 -0.588096 -2.625417 2.364421 0.565418 0.277984 -0.238119 0.305246 0.244779 -1.547669 -1.936409 -1.347130 1.486090 0.622007 -3.306601 -3.094838 2.714440 1.712880 4.453997 0.798075 2.964434 0.873151 2.165267 -0.681406 0.503023 -0.172647 -2.374327 -2.882043 -1.723317 0.248886 2.061528 -1.853854 2.218204 1.335070 -2.393332 0.230598 
class 1.638635 0.712739 -1.396940 -0.293410 0.958415 0.541680 -0.207881 -1.236022 -1.593387 1.629253 0.130893 0.827785 -2.480685 1.179591 -1.256881 -3.527063 -1.707395 -1.293476 -1.379764 -0.746055 -0.207273 -1.266307 1.705489 -4.972985 -1.193611 -3.014459 2.176907 0.118417 -2.409626 0.264982 -2.658103 1.352957 -1.632723 -4.567915 1.985560 -0.452386 0.330718 -1.366387 -4.351335 1.846501 1.215129 1.264626 1.133360 0.372411 -0.638138 1.075122 0.545334 0.320348 -0.074867 -1.186680 -2.207732 1.967377 -1.900009 0.053574 -0.407586 2.810420 -1.416366 0.127525 -2.233305 0.048093 -0.970337 1.438236 2.594104 -0.763146 1.370426 -0.784586 0.677408 2.516348 2.133239 1.575942 -0.066930 2.272154 1.350422 -2.682634 -0.918904 0.186293 3.872792 -0.338575 -2.483002 1.970390 -1.306561 -2.210619 -1.322577 -1.257166 1.063901 1.717245 -0.602998 0.580500 -0.299639 -0.812229 -0.898808 -0.176789 0.810571 2.162220 -0.590177 0.558043 2.474895 1.031160 0.173870 -1.852944 
read 3.997107 0.097686 0.307356 -1.174299 -3.065871 1.979096 -1.039147 0.869661 3.358881 -1.743700 -0.551771 -1.825646 1.427026 -2.029104 -1.016185 1.979194 -0.997120 0.108600 0.500974 -1.412091 -1.548823 -1.593484 0.343067 0.425397 2.928237 0.437247 0.783078 -1.971150 1.482282 2.640729 -0.933255 1.177687 1.665615 0.212650 0.556678 4.041058 -0.846896 0.201418 1.284776 2.423452 -1.091961 -2.967269 0.920998 -0.472110 -1.159940 0.210845 -0.232388 -0.745637 -2.953088 -0.594115 0.286929 0.269721 1.016721 2.646426 -3.005161 -0.851839 -0.462547 1.493012 -2.231175 -2.331455 -1.166376 2.887596 -0.878204 2.633343 1.668189 -1.970919 -2.252949 1.159147 0.138784 2.180947 2.892206 -0.175804 -1.408540 4.021788 3.917833 0.223916 -1.806091 0.747674 2.195688 -0.133904 1.084375 -0.414902 -1.245504 -0.084981 0.570309 -1.808185 2.881221 -0.348058 1.262047 0.561797 0.112723 -0.998384 2.245890 -1.577727 -3.096844 0.748816 0.199372 0.801956 -0.997027 0.207976 
instanc 0.644032 -1.604823 -0.325430 -1.153912 0.713158 2.809825 3.123285 -0.476980 -1.130464 0.788160 2.033046 0.037711 -0.133967 -0.877537 -1.300567 -3.564731 -0.208089 1.111828 0.641254 3.183266 0.783758 -0.349012 1.439704 -3.888779 -1.074770 -0.415892 0.269530 0.628740 -3.727101 0.775084 0.568768 -0.990239 -2.741707 -3.631547 -0.857760 0.981451 -0.378121 0.612835 -0.789783 1.799780 1.517255 0.828803 0.086475 -1.846029 -1.825231 2.533398 0.540383 -1.474901 -0.430919 0.135061 -1.700498 0.398910 0.058175 -1.720653 -1.627637 -0.132538 -2.638513 1.986284 -3.957126 -1.793836 -0.680197 -0.790497 -0.618009 -1.283123 1.411441 -1.933076 -0.041573 -0.594462 -1.228744 -0.932520 -1.874560 -0.492971 -0.849982 -0.567713 -1.684277 1.263358 1.152423 -0.427794 -1.427897 1.559355 -1.526021 -1.039446 -1.824666 -2.578186 1.970262 -1.280765 -1.494420 -1.465611 0.119785 0.250422 -1.298631 1.253655 -0.220056 3.493388 0.033170 1.226280 0.354629 -1.951882 -0.103348 0.339836 
case -0.047245 -4.578892 0.203293 0.569734 0.558723 0.439981 -2.197092 -0.341434 -2.779906 -0.430528 -1.045349 0.651287 0.195421 1.204913 0.181806 -0.281332 2.028526 -1.143934 -0.041372 1.949329 -0.338806 3.058448 -1.215371 2.470396 2.640699 -1.773313 -1.125072 -1.583290 0.403646 0.470695 -0.654596 -2.429795 0.560204 -2.395201 -0.226542 -0.348610 2.088905 -0.307346 0.016535 1.005508 -1.414855 2.164878 -0.415833 -0.238629 -1.513534 0.173601 -0.265849 -0.477808 -2.887921 -0.871534 1.242701 -1.669084 0.565370 0.250316 -0.201863 0.775563 -1.943893 -3.956909 -1.211540 -0.368163 -1.407228 4.722429 0.875479 -2.549090 -0.061624 -1.081422 -0.633713 2.506252 1.851357 0.727101 -0.054744 0.112338 1.963489 -0.289519 -0.467630 -0.816437 -0.542672 -0.595403 1.012026 -3.084750 -0.056450 -0.071730 1.543729 1.409908 -2.154903 1.441114 2.891027 -0.519298 -1.439593 -0.802976 -1.053447 1.069777 1.582058 -2.402181 -1.881955 -1.140817 0.717917 -1.875672 -0.240822 2.287486 
remov 0.121149 0.394524 -0.497942 3.263955 1.696549 -2.424506 1.086390 -2.015553 -1.820164 -1.678336 -1.495448 0.375678 -2.118498 0.918244 -0.412495 0.154588 2.075332 -0.585573 -0.920581 0.355418 -1.035522 2.327222 -1.139947 0.289834 0.886398 0.400669 -1.329497 -1.709109 3.718345 -1.944553 -0.470013 0.680563 1.065352 3.581654 2.182614 -1.698941 1.900978 -1.847593 1.261346 -1.422117 2.368096 -1.427680 -1.227021 -2.363171 3.750782 3.050913 -0.531095 0.106820 0.939964 -0.941641 -2.055763 1.116544 -0.829212 -0.364144 2.062380 2.226871 2.511367 -0.490488 2.065778 1.077083 -0.476903 -0.260896 -4.247919 3.368454 -1.658317 0.828864 1.018616 -0.249522 2.563455 -0.974768 0.021042 0.221480 0.002103 -2.933909 -0.617517 -3.953620 -1.906157 -0.278373 -0.814981 -5.284582 2.900258 2.076627 2.286467 3.533492 -0.365627 -0.096581 1.741411 -2.820734 -2.806396 0.468588 -1.582405 -2.960065 1.807191 0.727562 4.299100 -2.126854 0.636368 1.331957 -1.557803 -2.201555 
us -0.444976 1.482299 -0.004968 -0.052286 1.267477 -0.936564 -0.128175 1.397879 -0.167757 1.356783 0.508485 -0.947513 0.214781 -2.389234 -0.274871 -0.349847 0.944326 1.655282 -1.299019 -1.312375 0.970748 -2.049354 0.503028 -1.897615 -0.158524 0.738475 2.060995 3.248104 -0.747292 1.481258 0.068817 1.234460 0.039233 -0.465663 0.023335 -0.501317 1.137130 -0.770531 -1.180598 1.817369 -0.299863 1.554716 -0.848812 -1.149526 -1.450201 0.060986 -0.201141 -0.255924 0.307479 0.408700 -0.798348 1.573462 2.432126 -0.651090 -0.128798 0.116232 -1.179060 0.300696 1.662606 0.200778 -1.675180 -0.723097 2.441342 -0.262247 1.021147 -1.927003 -0.352890 -1.437564 -1.355040 0.052060 0.728274 -0.132316 -0.758649 -1.698037 -1.081114 1.082469 2.198045 0.879956 1.460576 2.517322 -0.213568 -0.816907 -1.021475 -0.110528 -0.836016 -3.257545 -1.097094 0.233546 -0.670411 0.046204 -0.424926 -0.666661 -0.104428 0.366585 -1.043032 -0.541585 -1.953288 -3.164737 0.351826 -1.122299 
current 0.181930 1.564263 0.833951 0.114532 0.821561 -0.643200 0.813210 -2.738321 3.189841 0.341423 2.080523 -0.302479 -0.602200 0.516483 -1.682554 -2.143162 -1.401961 -1.260231 1.309820 -0.519750 -1.704600 -1.755931 0.808568 1.167207 -1.164868 1.036794 1.786205 0.808173 1.255573 1.602032 0.986434 -1.241816 -0.126422 -0.652922 0.300586 -1.262254 1.287510 -0.723740 -2.371163 0.138248 -1.595544 0.833935 -0.749353 -0.409012 3.112965 -0.999295 -1.027607 -1.349789 -0.876352 -1.726659 0.707964 -0.341643 -0.437942 -1.815118 3.150118 0.448055 0.663563 -1.621683 0.224025 -2.501009 1.331825 0.002270 -1.130174 0.682225 -1.291389 0.334232 0.994372 -2.066780 0.863891 -1.012809 -0.178021 0.139530 0.429447 -0.852977 0.114195 -0.198333 0.715510 0.617345 0.319769 0.255062 -1.230000 0.402686 -0.850584 -1.824988 0.939834 -1.717509 0.157966 -0.503014 1.098579 0.934929 2.085628 -1.582276 0.903272 -0.668608 0.155892 0.321735 -3.147262 -1.581177 3.917140 -0.780003 
messag 1.191044 -1.004616 -0.791032 -1.095847 -3.840034 -0.299398 1.911705 0.839472 -3.307487 -2.069285 1.298251 -0.545131 1.244954 -0.069364 -0.075386 -1.137350 -2.259406 -1.151617 0.534753 1.120383 1.071941 -0.330272 -0.134296 2.393078 -0.301198 1.119843 0.865254 -0.774159 -5.978832 -0.880931 1.336920 -2.251867 -1.364030 -0.809962 -1.035885 0.554009 -0.862588 -2.348928 -1.811329 -2.337783 1.311823 -1.901268 -1.877508 -0.513193 0.752298 -0.228038 -2.844478 -1.079414 -4.570727 -0.486473 1.265434 -0.770050 -0.895929 3.583216 1.742293 -2.061879 1.076019 0.852452 -0.832559 -0.539769 0.567803 0.534944 3.855190 -0.810190 -2.941853 0.427521 1.575450 0.137261 0.293653 -2.055137 1.979356 2.680488 1.255054 1.920282 0.290840 -1.030814 -0.987653 1.661563 -0.934749 0.631447 -2.057190 -3.765279 -3.702389 -0.931651 -0.403614 0.968223 0.562683 -0.809092 1.865284 -0.682017 0.729351 1.551057 0.471603 0.636165 -0.474757 0.609032 0.384257 0.099546 0.230489 0.897260 
char 1.507594 -1.622000 0.773387 0.219166 0.220122 0.024384 -0.141913 -1.227850 -0.344221 -0.836883 -2.889478 -1.610352 -0.945742 -1.693992 -0.870618 1.385015 6.550366 -0.671248 0.819969 2.945783 2.532102 -2.567729 -3.657561 1.461892 0.701646 1.415025 -0.919402 0.157373 0.816981 -1.306444 0.112386 -0.348345 1.591396 0.275571 1.162320 2.390810 -1.864909 0.574161 -0.666769 1.754692 -4.083447 2.120106 3.155702 -0.235692 -3.112717 0.527569 -0.958822 0.618236 0.135391 -0.447124 -0.621945 -0.282916 0.460819 0.872027 -4.672224 0.400724 -0.330723 -1.101134 0.283496 -2.763274 -0.763838 2.057162 2.254256 -3.809076 2.284714 1.055281 -0.391367 2.401900 0.020200 2.662652 1.068036 -0.306647 -1.398283 -1.317924 -0.797274 1.402514 -1.027267 0.073007 3.298445 -1.200586 1.563534 0.407549 0.073240 1.087117 -3.149494 3.314521 -2.082525 0.524554 0.287630 -2.782894 -0.239225 2.006100 1.886182 -2.501602 -0.632396 2.054994 -1.720612 1.368794 -2.388561 -1.525732 
type 3.019542 -1.769157 -1.802756 0.748054 -0.677206 -2.276643 -1.126686 1.689836 -2.080339 1.069974 -1.170560 3.007335 -3.268864 -0.491590 1.455635 -0.991335 -0.080835 1.228370 -0.133452 -0.770559 1.766717 -1.028037 0.253501 -4.267659 -0.414102 -2.680989 2.889622 0.759918 -0.551152 -0.667544 -3.536885 1.431467 -0.288767 -4.131750 -0.743778 -1.194440 -0.010939 -0.229590 -1.472932 1.058246 -0.267495 1.896918 0.144884 0.286498 0.836561 4.610156 1.248270 1.113798 -0.727155 0.552251 -0.770556 -0.149278 -0.838486 -1.397326 0.524062 -0.297167 -1.838745 -0.362142 -2.657702 1.004199 -0.750327 1.257696 4.178632 -1.874392 -1.682396 -0.884562 -0.279383 0.688031 0.965418 2.167145 -2.143044 0.803057 -0.740890 -4.011658 -3.538934 2.544403 1.038510 -0.769636 0.090959 0.840617 -0.016402 -0.877282 0.400306 -1.787332 2.180879 1.530662 -0.117783 2.252707 -1.621036 -2.415322 0.541546 -0.824669 -0.499975 0.843535 -0.230205 0.310697 0.161177 -0.961712 -1.657216 -1.457247 
attribut -1.664879 -3.289981 -1.923903 0.457703 -1.925982 -2.113886 0.307707 -0.273018 -0.485702 3.062719 -0.629491 3.751203 -2.816288 -1.834721 -0.555726 -0.815154 -0.920027 -1.031723 2.553716 0.962613 -0.252842 -0.124442 1.468734 -1.270521 -1.059928 -2.556242 1.605293 1.290383 1.273491 0.594295 -0.666002 -0.212120 -1.352376 -2.998811 0.451737 1.473679 2.095915 0.200200 0.116169 -0.145180 -1.976537 0.485186 1.405844 1.032220 1.469429 1.750108 -0.186457 1.697350 2.169210 -1.271642 1.286798 -1.028712 0.283597 -2.890279 1.312619 -1.908476 -1.412545 1.434113 -2.238284 -2.392925 1.067765 1.227649 1.075547 -0.722081 -0.486824 0.926109 -1.159726 0.451059 0.408614 2.380924 -3.259513 -0.271565 -1.143419 -1.983498 -3.178992 0.452121 -1.040972 0.697725 -2.977237 -2.399268 -1.121830 1.023263 1.274282 1.643723 2.746966 3.958340 -1.221452 -0.575799 0.069531 -1.431183 -0.095178 1.229390 -0.950200 0.492631 -0.868067 -0.344302 1.065928 1.695364 -1.418127 2.735908 
close 4.027677 0.003791 4.000585 -0.661340 -1.641192 2.774017 -2.439825 -2.108772 2.557089 -1.480314 0.920994 -1.093599 4.254123 -0.632187 0.731351 -0.014558 -3.473927 0.170609 -0.905637 -1.328845 -1.358023 0.687726 -0.526534 1.725878 1.492043 0.573038 -0.484563 -0.582658 0.488661 3.556740 2.364054 -0.460225 0.647159 -0.236225 -0.915068 1.525950 -2.721414 -0.892553 -0.314294 -1.331370 -2.004990 0.177681 -1.347617 -1.311540 -0.283231 -2.118133 -2.213123 -0.734406 -2.383547 0.233834 0.466014 0.745128 2.241516 3.700370 -0.954771 -0.351781 -1.400443 0.496367 -0.213165 -3.136673 0.299928 2.171638 -2.943942 2.833813 -0.893130 0.908366 0.756763 2.567792 -0.348117 1.357019 3.357716 1.458966 -0.680564 5.532778 2.314568 -2.226133 -0.394130 0.261585 1.379478 0.440724 -1.353490 -2.502864 -2.672775 1.197569 -0.384754 -1.499546 2.204366 -2.619571 0.726744 0.670731 -0.056132 0.395060 2.434978 -1.686790 -2.315995 -1.427873 -0.465748 2.433175 -0.785202 2.217266 
text -0.147498 -2.438476 -1.724653 -0.079991 -0.752057 -1.772273 -0.599912 -0.152432 -0.734291 0.319618 -0.653245 3.008731 -1.418166 -3.363395 0.764517 2.193056 -0.455228 -0.943533 2.604430 0.778447 -1.078627 -0.573888 0.670895 1.828023 -1.566139 -0.543812 -0.207421 1.824115 2.354115 1.742675 2.651001 0.362759 0.046983 -0.904519 0.989495 1.200710 -1.969671 -1.169441 -2.383951 -0.100778 -3.024328 -0.697891 0.095485 -1.340332 2.698449 0.909501 0.353884 1.454745 -1.125340 1.950411 2.278197 -0.007557 -1.317841 -0.514896 1.926412 -5.150585 -0.296091 0.161009 0.293638 -0.468976 0.792989 1.269550 2.548579 -1.930736 -2.740790 3.570465 -0.201804 2.158423 -0.047469 1.205113 -0.209972 -0.643585 0.407553 3.349105 0.791241 4.348522 -0.466164 0.345824 1.295340 0.173990 -1.030309 -1.172717 -2.873563 2.769291 -0.970950 2.989620 -3.900671 1.364947 2.736704 -1.047135 -0.441832 1.447994 -0.374806 -0.683777 -1.807319 0.192472 -0.341405 0.237301 0.982160 0.440095 
time 0.703059 0.890864 2.140579 0.446092 -0.211492 1.225489 1.696523 -2.254897 0.623066 2.276531 -0.413291 -0.232750 -0.766313 0.192370 0.124010 -2.465919 -1.577996 -2.433420 3.183721 0.439207 0.471626 -0.420193 -0.412458 1.303441 -2.466707 1.192699 -1.295046 -0.238928 -1.521260 2.690729 -0.390709 -3.288904 0.576994 -1.954351 -1.889074 -1.346609 -0.182653 0.650601 -0.273852 0.820879 -3.338459 -0.308921 0.602476 -0.988921 1.514764 -0.930433 -2.366323 -1.143975 -1.298631 -1.264917 1.454726 -2.899807 0.509778 0.652042 0.069748 0.060607 0.390057 -1.053037 0.052879 -0.856185 1.545629 -2.058485 -1.221356 -0.886609 -1.956222 -0.025951 -0.311100 -1.253643 2.504031 -3.600677 -0.391366 -0.541282 -0.992915 -0.272452 0.239771 -0.789056 -1.130548 -0.619674 1.479574 1.865509 -1.761085 -0.038569 0.052274 -0.529348 -0.124693 -3.423430 1.240503 -1.940483 1.425968 0.500982 0.812219 1.326112 0.115243 0.181107 1.018583 1.133386 -1.402757 -2.082433 4.410779 -0.702557 
format -1.211652 0.104188 2.574800 -2.051685 -1.740724 4.992734 0.129830 0.864188 0.624513 0.050464 -0.354967 -0.145121 -0.115432 -0.503121 0.570756 -2.626246 0.057598 -0.116097 0.259769 0.280291 2.189940 -1.075927 0.852098 0.057654 -2.879848 -1.694344 -0.079482 0.658141 -1.597407 -0.683307 1.056675 0.459619 0.130356 0.866510 0.303533 0.268762 1.359283 0.799177 1.301642 -0.815316 -1.658983 -1.769233 0.148520 1.031468 1.195136 1.582410 -1.202408 -1.693317 -0.691084 -1.115120 -0.963564 0.544699 3.270386 3.674110 0.489256 -3.733509 -1.664742 1.269929 2.296665 -1.103458 -0.973179 0.238171 2.230121 -3.006125 -0.385138 -1.564164 0.022389 -0.610842 -0.590596 -1.870779 -0.114739 -1.052008 -1.458703 -0.949884 1.915242 2.562244 -0.586947 0.083166 -0.572444 1.974882 -0.686755 -0.090027 1.574131 -1.332314 -2.466916 -1.089567 -0.462846 -0.547412 1.544490 -0.221712 0.886615 1.737974 1.958792 -3.715116 -2.530421 0.268422 -0.950013 -2.305969 0.384689 -1.225485 
java.util.List<T>#add -2.224431 -1.187217 2.381368 -1.418065 -1.325627 3.534179 1.793920 3.861129 -2.073782 -1.238867 -3.474574 0.928134 -1.898650 4.003774 2.961040 0.587060 -1.380122 1.093893 2.338573 -0.718000 -0.751506 0.171473 1.617960 -1.738685 -1.023610 -1.984996 -1.825770 1.740990 3.113080 -2.074190 -1.381767 -1.007791 0.906988 2.706974 -2.185340 -1.005295 -0.653134 2.492120 -0.957109 -0.893901 -1.579476 -1.622048 2.616689 5.191560 -1.905255 -2.765406 1.428602 0.253843 -3.410331 -0.176267 -0.785330 0.327038 0.017232 -1.519423 -2.162567 2.783082 2.382009 0.020984 0.052372 0.912450 0.059184 2.873130 -1.339436 1.519046 1.406672 2.573368 -0.364918 -2.154017 -1.777797 -2.003201 0.397000 0.649789 2.503069 0.761450 -0.436760 -1.965166 0.441187 -0.986152 2.234508 1.446953 1.924095 1.515579 2.878352 -4.527253 -0.452567 2.856492 0.262204 1.265642 -1.733685 4.336684 1.331348 3.185687 -2.223671 -3.638020 -0.889103 1.015833 0.798096 -0.032929 -3.316296 -0.883808 
byte 5.193138 -1.502167 4.533125 0.730397 -1.382879 -0.882595 1.676041 0.887193 -0.092583 -0.578512 -3.348827 -0.440835 1.820290 -1.719826 -0.494270 -0.210169 3.487785 -1.390705 1.246611 -1.872257 1.180506 -0.526161 -1.636515 -0.687526 -1.055224 3.700113 0.059506 -1.546594 -1.868622 1.071587 0.886450 2.170624 1.623273 0.377362 -1.747872 2.007889 -0.594962 1.306263 1.523127 -1.472916 -0.911676 1.467227 0.631805 -0.382872 -1.096531 -0.370093 -1.100905 -0.031729 -1.258613 -0.703974 2.810692 -1.876925 3.394243 4.036660 -6.207255 -2.013403 -2.313626 -0.116229 -2.137881 -1.238440 0.357522 -1.415953 0.610940 0.627899 -0.296160 0.154863 0.678796 1.809610 -1.027199 2.525732 1.994040 3.061109 -0.211671 -0.928519 1.084594 1.539781 1.775655 1.829504 2.041196 2.387320 -3.783780 -1.276293 1.156401 -0.794556 0.671609 -0.096317 1.341037 2.448969 4.190162 -0.624978 -0.985907 1.641190 1.767982 1.680170 -0.903577 3.073368 0.107558 0.090601 -1.974673 1.955880 
stack 0.425956 -0.544624 0.712105 -0.272629 -0.888729 0.449867 -0.020468 -2.053824 -0.217531 1.216894 0.023644 -2.457959 1.099283 -1.062577 0.269862 -2.088105 -1.908297 -1.099503 0.795844 2.420746 -3.676198 0.928137 3.285565 2.715255 1.605162 -0.455266 -2.064575 -3.601830 -2.204585 1.599257 -0.301898 -1.043577 -1.211250 -1.056285 1.204245 0.494433 -1.457239 -1.668338 -2.696259 -2.843116 0.666414 0.422219 -0.015140 0.394353 -1.582186 -1.317017 2.417772 3.490402 -4.293558 0.784613 -1.130313 2.655111 0.177967 2.014217 -0.840977 0.275834 1.463650 -2.431588 -1.056479 -4.647000 -1.088804 0.112746 -1.089884 0.536577 -0.375637 0.442507 -0.486841 -1.148386 1.283402 -0.319631 1.217423 0.466047 0.176516 6.376304 1.520420 1.083745 2.013697 0.614335 -0.625200 0.005668 -0.466590 -4.543315 -2.279401 -3.333238 1.676022 -1.984694 -1.055297 -0.309910 -0.199965 -1.808783 -0.635738 -0.138447 1.974200 0.929871 0.262495 -1.862355 -0.282808 1.556295 2.138241 4.599568 
stream 4.045930 -1.089308 0.972086 -1.159635 -0.627287 -0.155230 -0.079233 -1.376037 1.645036 -1.963336 -2.424152 -0.498774 4.379313 0.585512 -0.093262 -0.051923 -1.278810 -1.177977 -1.034767 -2.320967 1.798788 -1.183811 0.289602 -2.991347 0.751670 1.390096 0.344650 0.332942 -0.799830 4.396195 0.898139 3.205103 -1.781845 -0.450420 -0.960403 3.584911 -0.690837 0.461721 1.324808 0.392499 -1.398382 -0.763848 0.108641 -0.027627 1.190301 1.609725 -1.118171 0.107026 1.143117 1.617749 0.003417 1.445888 5.352033 1.350712 -1.347775 -0.279333 -2.003320 1.323541 -2.139718 -3.267990 1.747868 2.396410 1.162248 2.012710 2.543480 -2.302969 0.399788 1.526042 0.536837 1.861292 1.748410 1.610794 -1.293273 2.748332 2.343554 1.021872 -0.368035 2.514117 2.273974 1.852247 -1.160527 -2.833845 -1.559407 -1.892934 3.195509 -1.799708 0.383615 1.772532 2.623834 1.554282 -0.046007 -1.022645 2.243292 1.656672 -2.984789 2.054151 -0.506829 -1.740889 -1.877695 2.751369 
empti -1.993081 0.421454 1.620368 3.198695 0.913993 -0.053154 1.411431 0.018015 -3.330360 -0.435084 1.124574 -1.332724 -4.085556 2.114601 -1.597950 2.979732 -0.989622 -0.801797 -2.088791 1.959244 1.000786 3.191785 -2.403144 2.326226 1.353415 -2.007645 -1.946440 -0.087981 2.722727 -2.175626 -1.509981 -0.807172 0.350562 2.166383 0.588497 -2.317086 1.597856 0.703563 1.600966 0.515859 0.558838 -1.541607 1.644824 -1.831998 1.747386 1.832513 1.315986 0.359989 1.178620 -0.385107 -1.234644 1.134962 0.857572 -0.800859 0.925007 1.559686 1.207607 2.833278 2.240942 0.885896 3.332161 1.121822 -0.926537 -0.234174 0.391225 0.468074 0.956031 -0.336032 0.386245 -0.439973 -0.656284 -0.373951 -0.012044 -2.037564 1.527552 -3.493909 0.414783 -0.292851 -2.860608 -5.673464 3.913274 1.632568 -1.776149 -1.783844 -1.610247 1.071295 1.244894 1.610278 -1.521514 1.167599 -1.998120 2.430065 -1.229679 -0.420748 2.577213 -0.023971 1.544879 -0.246767 -2.070588 -1.273506 
with -0.267467 -1.323563 2.210718 -0.537428 -0.546931 3.014367 -1.536631 -1.199410 -2.137133 -2.472384 -3.652308 0.304187 1.477544 2.673060 0.456746 1.437222 -1.812982 -4.964860 0.474231 -1.074790 -0.907281 -0.634369 -0.546515 1.457798 3.952765 -2.377185 -2.342912 -3.099787 -0.097882 2.429099 -2.333345 -0.402227 0.236988 -2.628483 3.221621 3.535875 -0.246152 1.104937 -1.104124 0.466021 -1.914187 -1.761866 1.294497 2.420709 1.914023 0.836011 -2.362196 -2.915925 -0.245075 -2.409188 1.418664 -1.163056 -2.324630 -1.118117 1.164172 2.773867 -1.011160 -2.091956 -0.037014 -1.016411 0.228480 4.023239 1.335297 -3.810568 1.386999 -0.486343 -1.894913 3.082404 0.425008 2.406363 -1.795035 0.048980 3.437978 2.345631 -0.398049 0.270632 -2.960248 -1.172627 2.381557 -1.714612 -0.089439 0.197184 0.959229 -0.645644 -3.067027 3.057312 1.762378 1.214667 -2.892442 -2.389699 1.461542 -0.120211 2.909465 0.130007 -3.137228 -3.090993 -0.148433 2.883569 0.960378 -0.771628 
trace 0.484028 -0.391272 0.812112 -0.216982 -1.068852 1.186936 -0.308674 -1.781880 -0.455547 1.618658 0.071253 -2.715525 1.254592 -0.643070 0.381601 -2.293014 -2.004537 -1.094448 0.898497 2.654523 -3.967129 0.943284 3.126100 2.741274 1.942870 -0.728807 -2.347194 -4.024671 -2.588171 1.643971 -0.232197 -1.393934 -1.139877 -0.944014 1.263245 0.621928 -1.578115 -1.599062 -2.651034 -3.158161 1.297269 0.354113 -0.268798 -0.120602 -1.717224 -1.556072 2.070406 3.088356 -4.515225 0.755900 -0.829566 2.421390 0.103324 2.457551 -1.091761 0.077021 0.992774 -2.244117 -0.938549 -4.348291 -1.371170 0.211829 -1.134153 0.331374 -0.469988 0.251331 -0.652330 -1.235348 1.176053 -0.692352 1.408974 0.543934 -0.063471 6.755845 1.730319 1.150447 2.251356 0.377801 -0.729107 -0.044872 -0.741122 -4.534486 -2.324819 -3.296505 1.384235 -2.389586 -1.131363 -0.748971 -0.417681 -1.739778 -0.452376 0.638014 2.197401 1.078016 -0.162905 -1.844963 0.039013 1.765378 2.088594 4.823855 
java.util.Map<T>#put -3.874340 0.134741 -0.046652 -2.257408 -0.602476 0.825884 0.540837 -0.469033 -3.432012 1.868324 -1.145400 0.550641 -1.607606 -0.291291 4.082156 -0.924642 -1.006759 0.427242 2.233093 -2.532731 2.187812 -0.644442 2.005108 2.148171 -1.224639 -1.033221 2.228063 0.874134 0.909618 -1.905407 -1.193388 -1.542181 -1.451994 0.352001 -3.569617 -1.475533 0.717170 -1.220877 -0.515815 -1.921328 2.312001 1.533895 -0.482678 0.976594 -1.958747 -1.279508 0.658296 -3.745802 -1.289740 -2.492581 1.084232 -2.261694 0.153246 1.050846 -2.211318 1.614130 1.039243 -1.220259 -0.839774 0.584789 3.301250 0.814138 0.385786 -2.555666 -0.745824 0.649059 -3.881284 -4.280535 0.653082 -1.364596 -2.390097 -0.384585 0.614739 -0.413025 -0.034480 -1.059118 0.631234 0.207844 3.067509 0.988504 2.793920 1.486322 0.797418 -1.832427 0.739537 -0.217371 1.780336 -2.242959 1.259666 1.140311 -1.614179 1.211514 1.417851 -2.151802 -4.653604 -0.021309 2.204161 2.270632 -2.960109 0.672844 
data 2.089087 1.033446 1.108994 0.336764 -1.459119 -0.680991 -0.391870 1.158283 0.337371 -1.299380 0.936031 1.589244 -0.466286 -2.084128 1.528577 0.142078 0.194823 1.289810 1.891472 -1.103524 0.752177 -0.460248 0.823014 -0.319135 1.136874 3.037287 1.038176 1.097704 -0.071866 0.847765 0.678378 0.166546 -0.815725 -1.100279 -0.714258 0.616994 -1.135463 -1.108515 0.190405 -0.736967 -0.062447 -0.958562 -0.774087 -0.583819 0.581756 -0.305977 0.437037 0.203276 0.532023 1.497214 -0.027971 0.015489 1.039855 -0.499443 -1.367948 -1.103959 -1.750343 0.758777 -0.431502 0.235200 -0.222787 -0.838988 0.646541 1.814792 -0.177155 1.308880 -0.921139 -1.800429 -0.007619 1.342169 -0.168703 1.038230 -1.155811 0.553024 1.216645 -1.165766 0.742956 0.293510 -0.721536 0.167248 -0.669644 0.221547 0.894916 -0.518133 1.627536 -2.072268 1.471356 4.556521 0.912030 0.334292 -0.601935 0.323064 0.926858 0.445622 0.111546 0.047814 -2.036933 -1.789996 0.166637 0.096802 
listen -1.582203 -0.421995 -2.471640 0.672377 -0.221405 0.064485 2.232441 0.810695 0.023339 -0.075199 0.746214 1.445120 0.895146 1.863065 -3.450449 2.224444 1.546468 1.259936 2.245099 2.695639 -0.593210 2.031221 -1.318760 -0.429421 2.205046 -3.004510 0.174576 0.044689 0.692009 0.141763 -0.983280 -1.271244 -1.498346 2.150283 -0.417068 -1.631174 -1.491410 1.059946 -1.657525 -2.962642 1.519650 -1.346487 -1.350789 -2.760550 2.527134 1.130750 -0.416759 0.287889 -2.201727 2.293162 -3.215731 2.014672 -1.543753 -1.410233 -0.659771 -0.098147 0.993589 0.727079 2.059587 2.869963 0.486967 1.192208 -1.419534 1.751871 -2.348865 0.424280 1.733540 0.833763 0.439859 -0.950684 0.782339 -0.635328 -1.537269 2.423369 -1.378742 -1.009545 -1.451518 -2.977393 -1.362743 0.105531 -2.392661 -2.517666 0.493817 -0.000279 1.924377 -1.724992 -1.431157 0.440983 0.924507 4.568882 -2.276852 -1.952930 1.609361 3.947471 3.044095 0.389827 -0.536312 3.200497 -0.297646 -2.411627 
ignor 0.503132 -5.265844 -0.352645 -0.766082 -1.281914 0.428532 -1.762586 1.655416 0.213595 0.016802 -0.224964 -0.204106 0.715582 1.870817 0.711414 -2.069566 1.373418 -1.668383 -0.038959 0.564778 -1.702523 2.179351 0.814446 2.022632 2.161135 -0.989729 0.874177 -0.858547 1.655042 2.529679 0.194283 -3.024618 1.269090 -1.581725 -0.562935 0.461727 3.157537 0.954639 -0.424496 1.197494 -1.410717 0.271028 0.963307 -0.555347 -0.821360 -0.303278 -1.834682 -0.093676 -3.270595 -0.275017 -0.201194 -1.364206 -0.377851 0.659064 2.165086 0.168682 -1.772635 -2.713749 -2.824359 -1.526082 -0.607472 3.887084 -0.440460 -3.291846 0.373939 0.038601 0.038680 1.312782 2.045479 1.937243 -2.817399 0.031439 1.693688 -1.330458 -1.320972 0.468804 -1.129463 -1.054322 1.236040 -3.582242 0.495278 -1.051742 1.592967 2.800703 0.019093 1.010049 2.425797 -0.659124 -0.147327 -0.319557 -1.461507 1.643712 0.400952 -1.145072 -2.022233 -0.092266 1.464203 -1.562109 0.622741 3.088362 
iter -1.132190 1.786532 4.068739 0.541600 0.804515 0.488096 -1.538019 -1.396354 0.723606 0.294287 -2.176395 -1.429439 -1.325039 1.334639 -2.558320 0.015362 -0.752507 -0.188346 -1.050295 -4.039190 -1.013933 4.169182 -1.845701 -0.686577 1.418304 1.481560 0.093529 -1.949888 3.535946 -1.809623 -0.084275 0.365138 -0.834747 -1.248156 -2.406151 0.739392 4.634565 0.683496 1.361525 1.732177 1.486525 1.755792 0.042406 -1.908974 2.901666 1.058259 0.352854 0.817546 1.721048 1.210469 -1.366361 1.129035 2.573746 -0.986171 0.875865 0.219905 2.202713 2.282251 0.317110 -0.737404 1.462839 -2.150021 -4.420360 -0.409521 0.185752 0.014963 3.112520 1.621000 -0.167622 -1.252167 -0.615201 1.812614 2.756828 -0.226588 -2.153998 0.133354 -1.681429 0.934915 -3.338622 -2.080735 4.787834 2.141266 1.001765 3.109233 0.658656 2.351143 1.700068 0.246313 -2.212200 -0.218128 -1.607079 -0.916032 -2.660587 3.322231 4.004248 -0.498650 3.207466 0.329124 0.939033 0.221524 
path -0.406452 1.413346 1.016768 0.819514 1.817698 2.243008 -0.091755 -1.010584 -0.972191 -2.357080 1.394963 3.335804 1.528188 1.654500 3.041084 0.266720 -3.271251 -2.269163 -0.775380 -1.927223 -2.905668 -0.373738 0.311146 -1.432305 -0.403466 -0.792146 -1.738965 -0.543146 0.004817 -2.121560 -1.288076 1.153932 1.083000 -2.146165 4.930980 -0.648970 -0.008398 0.792680 -0.560112 0.395437 -0.599300 0.063832 1.572115 -0.048611 0.027115 -0.437539 0.117991 -1.341619 2.667955 -0.151751 1.610342 0.998426 -0.576043 -1.198959 2.547088 1.490053 -0.150930 -0.558904 1.246024 -0.005309 2.799028 4.413782 1.295158 0.543502 0.886096 2.019351 1.134445 1.142798 -2.548908 2.178679 1.241029 -2.111941 2.717630 1.005554 -1.181551 0.000900 -2.422680 3.257659 0.270894 1.111910 -0.311042 -2.321678 -1.892052 -1.542902 -2.624057 0.143288 2.186824 0.001469 0.944949 0.885577 -0.871530 0.641720 2.196431 -3.311216 0.559486 -0.169281 -1.906746 3.592467 1.281023 0.576050 
node -1.489465 0.206276 -1.349567 3.722076 -1.380527 -3.494659 0.398511 -0.395989 0.673500 -0.085461 0.706608 4.220515 -1.888354 -1.309023 2.683714 1.021929 -1.599258 0.995258 -0.607438 1.748519 -0.878218 0.744944 3.318263 -2.577397 -0.288852 -0.600680 -1.648052 -2.027733 1.175828 -2.024740 0.311024 0.241914 -1.465452 -1.698737 -1.017802 -0.182879 1.726315 -0.146503 2.190252 0.483000 -1.554183 0.078594 2.030514 2.365079 0.661699 1.830652 -0.383534 -0.661442 0.974318 -0.495106 0.637183 -1.378853 0.519794 -1.827935 1.214153 0.495428 0.333480 -1.188805 0.389365 -1.674246 1.561634 -1.266046 0.745177 0.633165 -0.293764 1.172796 -0.407293 0.299170 -1.031496 3.264229 -2.263762 -0.695400 0.275163 -1.851791 -5.019785 1.101047 0.034620 -0.815438 -0.825835 -2.532800 0.939123 -1.462577 -1.165416 1.343829 2.973661 3.088446 -0.909723 0.174818 -1.467681 -0.444017 -0.760101 0.327674 -1.220190 -0.898219 1.953357 2.977520 -0.394888 0.526407 1.160013 1.933439 
java.lang.String#indexOf 1.588667 -1.836398 1.089126 -2.663477 -1.227186 -0.507839 -2.726678 -0.283828 -0.162252 -2.695383 -1.725803 0.145072 1.131650 -1.203246 0.178200 1.475088 3.743151 -5.629411 1.991183 0.031004 -3.347316 -2.672685 -1.685717 3.323657 -0.194336 -1.820383 -0.486997 -1.659012 0.970326 2.376478 -1.264580 -6.275434 3.602329 -0.377815 1.043135 2.718190 -1.887845 -1.748902 0.324416 1.908549 1.295172 1.570051 2.613549 3.583279 1.072274 2.176072 0.391585 -1.192820 -0.597914 -1.156842 0.822789 -1.580582 -0.765164 1.615076 0.662190 0.784609 -0.157312 -0.986784 -0.900850 -3.852909 -0.902030 3.149674 4.253249 -4.302864 0.699931 0.112445 0.832380 2.631612 0.318802 2.586446 -1.017321 -0.648421 3.237733 0.092828 0.082205 -0.544254 -3.312449 -1.117737 1.587485 -2.541076 0.396399 2.081238 2.115167 -0.319293 -3.080264 5.450748 -2.451602 -1.866269 -2.156323 -2.132447 1.000447 -2.181054 0.955370 -0.987235 -4.154614 -1.791705 -0.411467 3.603462 -0.085611 1.781928 
java.lang.String#charAt -0.328605 -0.492934 1.361037 -0.596365 0.675003 0.912738 0.161646 -1.032695 -0.320990 -1.171496 -2.776469 -1.957166 0.350372 -0.561877 -0.395320 0.639588 6.049419 -1.068581 1.259277 3.127251 1.866723 -2.851041 -3.553827 2.147002 1.661720 0.576545 -1.103126 0.256916 2.232010 0.780247 -1.057748 -0.139719 2.026481 1.129917 0.344067 2.710533 -2.812012 0.709158 0.655053 2.690280 -3.407249 1.539453 2.956680 1.232209 -2.512603 0.143432 -1.048175 -0.461321 0.272507 -0.389377 -3.105947 -0.355555 0.370763 1.468586 -3.001082 1.322920 -0.235177 -1.860106 -0.291272 -2.278674 -2.522558 0.946796 3.807173 -4.251107 3.486805 0.082381 -1.516814 2.981791 0.126278 3.468007 0.031729 -0.989201 -0.171988 -2.688383 0.000748 0.515994 -3.546163 -0.362466 4.167649 -2.837557 2.062253 0.895389 1.615015 1.943125 -4.126452 3.913950 -1.385165 -0.050165 -0.578946 -2.703179 0.172885 0.449305 2.034453 -3.156481 -0.660818 2.640079 -1.488004 1.004691 0.744142 -1.069028 
select -0.625143 -1.119329 -2.571280 0.380885 1.025924 -0.080891 -1.924229 0.011984 -1.085938 0.291063 0.849702 2.153483 -0.570549 0.286487 -0.261316 2.422513 1.589643 -1.700390 3.569803 0.902858 -1.818131 1.841224 -0.055275 1.510352 -1.147922 -1.367708 -3.081247 -0.227870 2.430005 -0.995508 2.860654 -1.091618 -0.471844 -0.227362 3.295767 -3.663993 1.680508 -0.757937 -0.646903 -0.461263 -0.237215 1.021926 -1.043077 0.699403 2.572176 -1.266347 1.841689 0.104901 -0.654328 1.782885 0.102898 0.148477 -2.214253 -0.745023 1.939542 -1.604106 -0.395105 -0.820885 1.378667 2.590265 0.300201 0.133020 -1.424106 -0.277697 -3.709352 1.399675 0.822877 0.420657 -2.384854 0.294883 1.261564 -1.818671 -1.376207 1.819334 -0.148248 0.422703 -4.430161 0.510727 -0.934707 0.819734 -1.537040 -1.307180 -2.257774 1.606907 -0.505738 1.254415 0.342255 0.334231 -0.044241 0.861211 0.087360 -0.633511 -0.496554 -1.398267 1.466004 -2.112746 -1.163934 -1.824262 3.153069 -0.706461 
end 0.354690 -1.816426 0.390698 -2.059884 0.619236 -1.189472 -2.209174 -0.622073 -0.071739 -0.045266 -0.982898 3.198962 0.062660 0.578004 -0.819836 0.910696 -0.955600 -3.309051 0.739271 -1.360206 -1.021456 -1.990850 0.453121 1.170372 1.216594 0.903438 -1.761346 -2.106011 2.760148 1.862925 -1.752585 -0.832024 3.090104 -1.399795 3.053174 1.889749 1.903755 1.103276 -3.064484 0.681466 -4.167103 -1.738937 0.857937 1.441677 2.963811 1.920640 -0.969358 0.047904 -1.320249 -0.291225 1.127887 0.321026 -1.407479 -3.366204 1.702926 0.416105 -0.514498 0.585997 1.643149 -1.384427 1.847532 2.320004 0.553907 -0.119543 -0.055579 1.264556 2.187663 2.646049 0.596745 2.974903 -3.147442 -0.445105 2.687544 3.673441 -1.789563 1.518104 -2.503400 -0.964239 1.722456 -0.605927 -0.782690 2.452277 -0.127922 -0.598421 -2.393941 2.533348 0.180160 0.165250 -1.248314 -2.105777 1.188797 -0.884596 4.041992 -0.598299 -2.513252 -1.586315 -2.965070 2.735678 -0.130930 -1.507476 
field 2.065381 -1.069430 -1.549909 2.144687 -1.548657 0.600943 -2.129810 -0.204393 0.492544 4.931167 -2.453071 0.038895 -2.744623 -0.609572 -1.643994 -1.679385 -0.783672 1.713212 0.845138 -1.275770 3.392852 0.526020 -2.690503 -2.722668 -1.594801 0.347577 -1.554011 2.381227 1.646165 -1.355461 -1.836749 -1.422849 -2.644979 -1.706080 -0.527836 0.674787 -1.152792 1.337564 -0.867373 -0.996543 1.186198 0.098649 0.522363 -0.244667 -1.929871 3.443398 2.061548 -0.675605 1.647226 -0.616816 -0.926295 0.089292 -1.187348 1.344677 -1.405149 -1.976636 -0.631559 -2.384000 0.490263 1.786150 -1.413610 -0.279851 0.613674 -1.304756 1.074736 0.095508 -2.468318 0.155908 0.093404 0.857613 0.073956 2.774755 -1.352822 -2.788646 -0.176460 -0.492692 -0.711474 0.673661 0.178540 -0.296233 -1.409715 -0.278721 0.838008 -1.506402 1.547308 2.852165 -2.146423 2.309742 1.707890 -1.395446 -1.792739 1.995316 -2.091917 1.280705 -1.027813 0.954341 1.873586 -0.519859 -1.937539 0.471296 
java.io.File#.new -0.700070 0.660043 1.205174 -2.120520 -0.028518 5.910487 0.788418 -1.229907 1.399881 -3.725647 3.019065 0.476446 2.686375 1.878119 2.335417 -1.460639 -3.694127 -0.086425 -0.228288 -1.218526 -5.376152 1.200963 -1.334114 -2.134258 2.097517 -2.613606 -2.485383 -1.025593 -1.824432 -0.803150 0.293375 -1.763354 1.839844 -0.662705 2.829915 1.767942 1.007909 1.112500 -1.295220 -1.189262 0.297089 -1.584003 2.912604 0.687261 -2.095767 -2.894951 -1.793355 -0.411036 2.903772 0.399849 1.750092 -1.271522 -1.580948 0.898601 1.845122 2.247206 -2.401278 -1.424571 0.924070 -0.886011 1.381040 2.616470 0.391398 2.173965 1.713862 -0.089625 -1.312376 0.038054 0.497291 0.921955 0.012098 -2.310770 0.070175 5.439406 1.733036 0.329763 -2.245758 2.413634 0.611453 0.307058 -1.910325 -0.944745 -1.757038 -1.312084 -3.912938 -2.385663 3.386068 -1.891167 -0.874444 -1.596695 0.035784 1.590907 2.776687 -1.393499 -1.775664 0.322833 -0.715639 3.366660 0.521888 2.463624 
java.lang.String#equalsIgnoreCase 0.025525 -5.014929 0.075307 -0.835975 -1.572816 1.181574 -1.676873 1.836147 -0.813234 -0.116006 -0.315082 -0.464779 1.067962 1.892623 0.583679 -2.315514 1.600855 -1.728666 -0.496292 0.820384 -1.545732 3.272108 0.987695 2.478233 2.407272 -1.733533 0.818919 -0.463452 1.371306 2.581766 0.184543 -3.330722 1.025038 -1.554439 -0.414300 0.244152 2.776687 0.832181 0.067195 0.247915 -1.287771 0.178891 0.620663 -0.764931 -1.060077 -0.741836 -1.737981 -0.679266 -3.382621 -0.681065 -0.571322 -0.997516 -0.606980 1.142748 1.702942 0.205881 -1.815518 -3.352816 -2.706614 -1.889151 -0.798628 3.974582 -0.849711 -3.406068 0.664232 -0.639680 -0.324081 1.039577 1.988690 1.880272 -2.410261 0.069636 1.506921 -1.203709 -0.714721 0.189876 -1.304615 -1.083124 1.066129 -3.974919 1.027654 -1.214290 2.083006 2.809878 -0.271393 1.124685 3.053280 -1.214466 0.186542 -0.353345 -2.050983 1.881773 0.249650 -1.725362 -2.094458 0.011665 1.527752 -1.587792 0.666618 3.498561 
line -0.653208 0.207598 -0.325234 -1.210375 -1.042923 2.565330 -1.395578 2.729094 2.940323 -2.271143 -1.626113 -1.558265 3.140767 -1.952641 1.148363 3.362868 0.132894 0.912406 -0.692697 1.138160 -0.002349 -1.255753 0.349212 2.267380 2.478769 0.155211 -4.209780 -3.291934 1.490364 2.715428 0.638061 -0.288653 0.450505 1.317423 -0.295637 2.966732 -1.958134 -0.167138 -0.363774 1.119722 -3.620816 -1.384682 1.700600 -0.901257 -0.105985 -1.173476 2.159201 -1.220972 -2.424931 0.836376 3.055627 -0.118406 1.468289 1.918979 -1.889828 3.028429 0.961863 1.446365 0.561090 -2.462534 1.503318 2.715484 -0.463180 1.039651 2.639275 1.654215 -0.466944 3.055790 0.924236 -0.101712 3.100823 0.229414 0.813771 4.435908 3.526467 1.846816 -1.448468 0.647536 1.256173 -1.030468 1.373903 0.542738 -1.872020 1.820225 0.197479 1.156660 -1.878453 -0.196945 3.062252 0.877686 2.865180 1.443491 1.254975 -2.288721 -1.036164 -1.296971 1.721786 1.288016 -1.924954 1.875810 
map -1.395184 0.315031 -1.769324 0.346498 0.391359 0.837284 0.335314 -0.816641 0.639382 2.614413 0.813609 0.862323 -1.932380 -1.712700 0.321422 0.290109 0.705817 -0.555463 -1.991386 -2.183729 2.166001 -0.053086 -0.504340 -0.549423 -1.159385 1.568125 -0.620538 1.911136 2.635330 -2.016001 -2.378814 2.660557 -3.417298 -2.063019 -1.256609 -0.842009 0.583623 0.233019 1.681034 0.162927 4.863364 2.427839 -1.646734 -1.680481 -0.153750 1.750400 1.432372 -1.055144 3.664178 -1.374721 0.417823 -1.053482 1.189616 -2.015706 -0.882037 1.380863 0.871393 0.089945 -1.434443 -0.098505 2.021024 -0.105690 -0.892722 -1.624718 2.742388 -1.988358 -2.008351 -0.422848 1.162852 0.130422 -0.962292 0.704826 0.212462 -2.119330 -0.812628 -1.850638 2.296964 0.764175 -1.946850 -0.557812 3.315442 1.563483 1.977393 1.114250 3.085294 -0.613771 2.162326 1.717217 -0.661886 -1.025462 -3.706270 -1.348492 -0.658672 0.769271 0.495147 -1.438981 0.936958 1.317525 -3.777163 -0.300687 
replac -0.262168 -0.314314 2.012213 0.687630 -0.915382 1.709512 -1.649894 -2.090077 -2.535327 -1.435076 -2.840163 0.726906 -1.740053 -0.677540 1.324378 -0.067174 0.468155 -2.746572 -0.782890 1.353328 -1.131627 -0.314083 1.656578 0.782563 0.357548 -0.919300 -2.366836 0.764099 0.159693 0.298340 -0.644455 0.454056 2.530772 -0.389776 4.066577 -0.760754 -0.633269 -2.818144 1.106200 2.148623 0.940547 1.971341 0.155024 1.392955 -1.033989 1.837273 1.600246 -0.093173 2.263413 -0.056469 2.387677 1.083135 -0.652265 2.110204 0.389598 0.781138 -2.124433 -1.691766 1.480410 -1.359170 0.287812 0.048384 -0.044113 0.744773 1.219546 1.255301 -0.246382 1.384852 1.430646 0.003110 0.257456 0.567438 2.229317 0.780722 1.052303 3.217134 -1.115738 -0.285195 3.411913 -0.320824 -0.420548 1.711395 1.728922 2.927514 -1.945923 2.024413 -0.809857 -1.960847 0.205986 -1.583755 -0.002339 1.251022 2.493473 -3.110244 -2.764593 -0.284056 0.377504 0.454943 -3.224704 -0.502577 
check 1.673977 0.278291 -2.642469 3.216000 0.105872 -3.495577 0.302529 0.810058 -0.843110 2.231737 1.645738 -0.500360 -0.863580 3.765266 1.525193 -0.248510 2.338276 -0.404730 0.108578 0.017922 -0.927421 -1.558272 -2.300313 -1.081600 -0.859225 1.663926 0.666945 -0.868153 -2.935367 0.385354 0.733163 0.328617 -0.660257 -0.047243 0.533435 -2.473797 6.182644 -0.320605 -0.859564 3.158327 -0.627712 0.500356 0.378790 1.298396 -1.061379 3.160860 -1.958404 0.230601 -0.194480 -0.132658 0.118126 0.488267 -0.379117 0.893991 2.942936 3.495207 0.355181 -0.850002 -1.507806 3.104352 -2.621835 1.997331 2.283178 3.378849 -0.643022 -1.453414 -3.521502 0.009741 -1.703395 -1.725454 -0.228196 0.920771 -2.116474 -4.682601 -1.586586 2.732830 1.462595 1.250499 1.696414 -3.798118 0.986624 -0.646291 0.532205 1.047478 -2.807248 -0.850367 -1.503839 0.950165 -2.590712 0.707603 1.856907 -2.280869 0.965990 0.075136 -0.244793 -2.285813 -2.604814 -1.634471 1.156704 -3.284967 
trim -1.523087 -3.458548 -0.634267 -0.466448 -1.138324 1.205063 -0.947185 1.606700 -2.593373 -1.145555 -1.441576 -0.730752 -1.776627 0.066338 1.265321 1.573925 1.782379 -1.140262 0.858487 1.033027 -3.871491 1.052807 -0.270813 3.094547 3.163986 -1.799897 -2.895816 -0.935996 1.784846 1.451219 -1.284064 -3.050106 1.166538 0.189758 -1.226039 3.782559 -2.937764 -1.233938 1.290187 3.440085 -0.871179 -1.232624 1.725698 1.040014 0.982520 0.005563 0.619611 -1.606855 -1.140121 -2.223413 3.899519 -1.239149 -2.000630 2.412666 0.798438 0.850384 -0.901801 1.377383 -0.295158 -1.912262 0.766714 2.198276 2.248126 -1.073968 -0.095741 -0.644684 -1.568126 2.047593 -1.242779 2.054196 0.666487 -0.511060 0.360227 1.129901 1.422488 -0.907694 -1.431873 -2.945352 0.701717 -4.607778 1.637738 1.516759 1.437241 1.617231 -3.094889 3.439949 -0.040565 -0.780289 1.539758 -1.825443 1.146509 3.158939 0.879422 -1.248197 -0.949721 -1.931190 2.914524 -0.869097 -1.432238 1.752932 
java.util.List<T>#size -0.988935 -1.430835 2.840794 -2.180142 -0.813604 2.463510 1.827565 2.022542 -1.716496 0.061434 -2.143492 1.288080 -1.134092 5.085151 3.628155 1.486115 -1.239580 0.595128 2.091754 -1.243505 2.422899 -1.024842 1.987765 0.069837 -3.460100 0.665235 -1.725890 0.303567 2.685915 -3.236467 1.817460 -1.474860 -0.135809 3.630220 -3.188916 -2.372163 -0.562941 0.807180 -1.500168 -2.331601 -1.537989 -1.010768 0.006922 6.661213 1.400804 -3.409973 1.640709 0.775110 -2.786471 0.254954 -0.499031 0.363137 -0.670395 -0.370349 -2.321517 5.064791 1.724310 -3.636429 0.525280 -0.320231 -0.183928 3.113064 -1.965684 1.156021 0.937338 1.195852 2.410972 -2.389215 -0.994734 -0.137430 -0.181887 -0.224779 1.865873 -4.009763 0.804926 -1.128319 1.000696 0.321778 0.392673 1.019859 1.605536 3.191512 0.971359 -3.129407 -1.090058 0.184859 -0.894739 0.702336 -0.375917 1.666700 2.012112 4.072553 -2.343043 -2.473824 0.636093 2.501137 1.981104 -1.953770 -2.431370 -0.214693 
java.util.Map<T>#get -2.324665 1.593028 2.440183 -2.596406 -1.056251 0.400423 1.094873 -1.125188 -2.964773 1.386916 -1.373772 2.424546 -2.789932 2.063179 4.146976 -1.040838 -1.253330 -0.094729 -0.276822 -1.178522 3.795944 0.008949 2.021862 3.119814 -1.044899 -2.483333 -1.245721 1.387158 0.044093 -1.540617 0.285303 0.082448 -2.477235 -0.414820 -3.152172 -1.218059 1.328732 -2.266954 0.141759 -1.614612 2.950406 0.470157 0.279609 -0.144188 -0.942138 -1.480197 -0.220735 -4.381829 -1.725476 -1.584226 0.136602 -4.731292 -1.724787 0.332502 -1.791077 2.872194 1.614348 -2.392637 -2.004874 -0.485238 1.505258 1.643659 -0.660595 -2.796183 -2.111231 -1.271313 -4.255730 -2.881298 -1.215727 -1.446941 -1.949790 1.025746 -0.932545 -2.524888 -0.907009 -1.139736 0.612867 1.469440 0.706031 -0.130122 2.446178 1.750252 1.790435 -1.743108 0.520989 0.050759 2.881764 -2.173323 1.508289 -0.630327 0.270582 -1.001640 0.333327 -2.839557 -2.712298 0.517836 3.969820 -0.348489 -2.035876 0.953513 
all -2.403424 1.338930 2.143995 3.593797 0.497837 3.472043 0.644149 -1.811346 -1.520972 -3.573521 -2.271301 1.138556 -2.035636 3.123457 -3.599623 0.374355 -1.096581 -1.187907 -0.031895 2.282250 0.681334 2.332420 -0.914089 0.942915 3.229806 -1.465437 -1.664069 0.016930 2.841923 -0.884817 -3.001719 0.047503 -0.593383 2.209265 0.717190 -2.404305 -0.275785 1.393438 2.615975 -1.559865 1.865962 -1.318337 -0.668685 0.388794 1.079870 -0.847870 3.287931 0.430450 0.169427 -2.010779 -1.040593 3.677490 -0.301657 -1.563894 1.694344 2.104484 -0.699116 -0.748855 2.049324 1.091966 3.046655 0.042616 -3.149089 2.384667 -0.372201 3.377062 1.280812 0.415271 1.127739 0.367763 1.170235 0.778177 2.623406 -1.541236 0.455178 -1.942738 -0.773162 -1.635391 -1.366286 -2.167191 1.857900 2.272449 3.060122 1.234879 -1.870538 2.695783 1.850880 -0.590092 -1.530412 3.269690 -1.075371 -0.528491 -0.709776 -2.280514 -1.231444 0.839251 3.231060 0.685590 -3.508453 0.709883 
java.lang.String#trim -1.699832 -3.587995 -0.298457 -0.660484 -1.333773 1.185899 -0.975148 1.532041 -2.527987 -1.533392 -1.258323 -0.679137 -1.629583 0.058921 0.967138 1.487360 1.403038 -1.144230 0.980557 0.866638 -4.000396 1.078535 -0.008789 3.428761 3.219839 -1.955388 -2.745573 -0.575992 1.807214 1.691056 -1.324338 -3.026196 0.956109 -0.132217 -1.293664 3.821766 -3.362956 -1.316087 1.298869 3.176422 -0.804740 -1.296310 1.505079 0.895800 0.688962 -0.037977 0.872992 -1.942533 -1.344835 -2.330410 3.770337 -1.304234 -2.333627 2.354897 0.870932 0.665140 -0.994869 1.126344 -0.478318 -2.116478 0.757545 2.466925 2.556853 -1.498161 -0.070154 -0.312212 -1.804152 1.963186 -1.299250 1.828597 0.669525 -0.764909 0.648215 1.518208 1.440787 -1.109011 -1.428395 -2.873202 0.649785 -4.775952 1.798142 1.496417 1.468306 1.233505 -3.092866 3.590244 0.036654 -0.747051 1.579227 -2.201699 1.280857 3.074493 0.906228 -1.086672 -1.247995 -2.016478 3.143352 -1.001803 -1.330453 2.103738 
default -1.000218 -0.664771 -1.480306 -2.430674 -0.049811 -0.779337 -0.317455 1.663433 -0.076579 1.857872 1.406124 -1.308876 -0.688116 -0.710559 -3.310970 -1.078785 0.328204 0.206203 -1.335922 -0.045622 1.975476 -1.830077 -0.852083 0.404557 -0.121739 -3.750942 1.728791 4.459140 0.420023 1.194820 0.011855 1.552744 -1.646246 -0.581439 0.242870 -1.515308 0.612831 -1.666352 -0.907073 0.479898 0.150376 0.848754 -1.549055 -1.905615 -2.037079 1.145886 0.519597 -1.091861 0.254027 1.141129 0.724817 -0.573395 1.896082 -1.466452 1.130465 0.950765 -1.375838 -0.415989 -1.449155 -0.046473 0.184259 0.879841 1.470067 0.703675 1.011001 -2.187451 0.749766 0.712049 -2.135589 0.555964 0.472408 -3.872955 -1.246140 -1.422790 0.047355 -0.611167 2.518427 1.447097 0.335179 2.615977 -2.262890 -0.931053 -3.837161 -0.908065 0.410577 -4.425540 -1.705081 0.893798 1.083282 1.054758 -1.870946 -0.164032 0.788747 0.939288 -1.486615 -1.216498 -0.968221 -2.936666 -0.290055 -0.163317 
item -1.739441 -0.988423 -1.798881 0.423753 -1.104330 -0.954202 1.202570 0.693086 -1.945101 -0.766977 -0.034753 4.305070 -2.008468 -1.318260 -0.587137 0.534370 0.649584 1.102183 3.193964 2.376790 -1.148119 3.000450 1.584505 0.383894 -0.478800 -0.525751 -1.296341 -1.692347 1.650083 -1.567026 2.050628 -1.830054 -3.002235 0.474583 0.995199 -1.716522 0.477983 -1.032489 0.420035 -1.177271 -1.452574 -1.067788 0.967895 0.163878 2.148185 1.368966 2.207954 1.466949 -0.142766 1.608703 1.017422 0.200816 -1.003501 -0.722544 1.923097 -0.969096 0.333544 -0.021390 -1.690827 3.073732 1.233893 -0.370222 -0.659970 1.449445 -1.730851 0.562063 -2.845788 -2.641644 -0.511409 3.092040 -1.474090 -0.218876 -0.006090 0.595340 -3.367307 0.333704 -1.829095 -0.639830 -1.051176 -0.988237 -1.204999 -0.270495 -0.687108 2.018862 1.237537 3.359076 -1.292634 0.601064 0.160367 -0.156355 -2.121580 -0.515685 -1.168650 -0.466462 3.379048 1.542034 0.162446 -0.742652 -0.758926 2.744740 
input 2.374642 -0.592801 -0.688717 -1.200202 0.360954 -1.872255 -1.012238 0.712877 0.289418 -1.650246 -1.459819 0.156576 1.918613 0.477105 0.424728 1.882905 -0.345601 1.230523 -0.143179 -1.424420 0.994345 -1.311116 -1.015587 -0.493351 0.526026 1.540063 0.193155 -0.217791 0.251813 2.956556 -1.677580 0.916384 -0.984107 0.941406 1.038985 1.762536 -1.795462 0.279069 1.205504 0.582660 -1.358510 -1.526805 -1.411583 -2.111763 -0.043208 0.046542 -0.105238 0.301554 0.555474 2.516604 0.658274 2.384695 1.541067 0.485406 -1.006410 -1.166190 -0.593911 0.041423 -1.239064 -2.339319 0.185293 1.915427 1.521046 1.478791 1.046391 -0.942327 0.188258 1.491240 -0.859009 0.881341 1.481520 -0.008935 -0.277188 2.029624 1.436874 0.876614 -0.074365 0.166038 1.504398 -0.593468 0.748271 0.673057 -2.134977 -0.676352 1.072376 -2.370103 0.018995 2.418973 3.097415 1.114350 0.390781 -1.336751 0.867587 0.304263 -1.717895 1.245621 -1.530595 -2.801551 -1.832342 1.074345 
java.lang.Integer#parseInt -0.409519 -3.922991 1.655678 -4.848166 -1.946540 1.868326 0.649585 2.713251 -1.491604 -0.369332 1.256643 -1.639451 0.293726 -0.669922 -1.957177 -0.585741 -0.846142 -1.674951 2.743688 4.323426 -2.045959 0.004101 1.083394 4.860241 1.990489 -4.735797 -1.091950 -2.284815 1.312020 2.761294 2.320007 -4.588029 0.605490 -1.070326 -0.446331 3.989236 -0.411864 0.525049 5.633395 -1.663857 1.194054 -2.123225 3.956224 0.095046 -1.353341 -2.398909 -1.195281 0.932801 -2.836607 -3.545137 2.389496 -0.714395 -1.656056 -0.097916 -1.378751 0.828016 0.175143 -2.374557 -1.958768 -1.665240 -2.022056 1.791470 -1.353051 -3.128792 -0.175508 0.159176 -2.965438 -0.032226 1.062825 -0.446146 0.367099 -2.217701 -2.402614 0.652698 2.669165 -0.732754 -3.320918 -1.125716 2.254520 -4.420959 1.543556 2.042140 -0.958412 3.190169 -0.737405 1.317556 -0.549869 1.048640 3.280044 -3.538740 2.386488 -0.259814 -1.158444 -0.610947 -0.016826 -0.243020 0.913290 -0.280275 1.451336 0.042185 
number 3.410181 0.488242 -1.274295 -0.708258 -0.537614 -2.003530 2.044468 -0.098864 2.005551 1.373681 -0.479988 -1.193701 0.027204 -1.020886 0.791076 1.821993 2.694732 0.175925 -0.568991 -0.343606 2.918622 -3.776457 1.885903 0.650317 -1.080364 2.061029 0.877885 -1.940479 1.528902 0.843054 0.837986 0.327262 -0.981837 -0.873736 -1.181317 -2.266507 1.230366 -0.997706 0.347962 1.107894 -3.240302 -2.712849 1.486290 -0.359658 0.337420 -0.307856 1.031181 3.056932 -1.018198 -0.577455 4.386544 -1.210826 1.796275 -0.775761 1.826404 -0.859036 0.978581 -1.335748 0.551377 0.780682 -0.729322 -1.848762 1.704974 -0.204257 -0.826484 -1.059446 0.925426 -2.316071 -0.978709 -0.766785 -0.253222 -1.491027 -1.226219 -3.796906 0.151308 1.613026 0.038852 -0.186055 0.867638 -1.416427 0.230298 2.861113 3.395806 -0.063363 -2.034112 0.637729 -1.121913 2.087448 3.912181 -3.508876 -0.131714 -2.539972 -0.785374 1.309113 1.841479 0.172058 -2.307943 -1.605589 0.987885 -1.471874 
java.lang.StringBuffer#toString -1.595344 1.461969 0.793644 -1.625268 -3.071969 2.002903 -2.197794 -1.052549 2.521156 0.165658 -3.745140 0.339319 -0.278287 -0.487483 1.798732 -0.401293 1.488814 -2.423325 -2.250818 0.718516 0.416910 1.572075 -1.934466 -0.660094 3.632691 0.710916 2.524618 0.655555 0.211861 0.725084 0.296226 -2.341716 -0.895656 -0.059688 -0.486838 3.999322 -1.946142 0.744152 1.661423 0.816885 -1.819285 1.438325 0.026677 -0.934446 -2.243622 -0.367178 0.056730 1.190564 -0.391084 1.348613 1.670022 2.165679 -1.583236 3.500299 -2.715309 -1.559566 -3.028530 -0.691129 2.400758 -3.370967 -1.308406 -3.956385 3.662531 -1.158281 -2.131190 0.355281 5.272524 2.001470 -0.886084 0.356132 0.347221 1.862471 -0.120888 0.557847 1.203628 3.727138 0.311800 0.276324 -1.526888 -1.199232 0.152104 2.575942 0.770083 -0.200198 -2.711515 5.991642 1.300626 -3.347826 -0.377466 2.409661 2.844104 1.402371 2.643931 -4.141852 1.037227 1.473449 -1.083315 0.189277 4.020187 0.735811 
java.util.List<T>#get 0.221081 -0.866833 2.495734 -2.221678 -1.532425 1.214306 2.054720 2.257913 -2.181359 0.953571 -0.838013 2.197819 -2.007882 4.579853 3.601911 1.248170 -1.070391 -0.477959 1.543192 -0.475627 3.033209 -0.783799 3.331733 1.741155 -3.104701 -0.733721 -3.340387 -0.105170 2.267678 -2.776280 1.896486 -1.064591 -0.205257 2.445298 -2.037174 -2.300755 -0.556767 -0.415320 -0.402798 -2.784150 -1.676559 -0.533090 0.447800 4.466299 1.106372 -2.970742 1.069953 0.697041 -2.022467 0.972006 -0.138574 -1.093177 -1.208636 0.115375 -1.183999 4.613071 2.572715 -5.309841 0.014264 1.249347 0.225198 1.990727 -0.982539 0.398127 0.111692 1.122287 1.507970 -0.908204 0.205341 0.549414 -0.284882 0.048150 1.538121 -3.860210 1.127602 -2.156082 0.479720 0.836551 0.274733 -0.383583 1.314074 3.806506 1.290578 -2.716865 -0.630699 -0.778687 -1.140020 0.405041 -0.407942 1.617739 1.788133 3.960722 -1.556636 -2.338891 0.501086 2.862821 2.462762 -1.804953 -1.469438 0.788754 
java.lang.String#startsWith -0.567467 -1.342705 2.172473 0.486614 -1.391186 1.292026 -2.204642 -0.164147 -1.846476 -1.879190 -4.310880 -0.408295 1.785113 2.145591 0.561000 2.286977 -0.769114 -5.241138 -0.972308 -1.671094 -0.502314 -1.233590 -1.051191 1.210221 4.264424 -3.445971 -2.362934 -3.053663 0.376228 1.954160 -2.370686 -0.232374 0.128718 -2.196445 2.214571 3.711158 -1.145920 0.815992 -0.637985 0.581050 -0.984308 -1.805991 1.447164 2.033104 1.494745 0.889826 -2.831185 -3.219313 0.435836 -3.209783 1.461111 -1.481479 -1.834622 -0.709180 0.574074 2.879486 -0.336671 -2.125380 -0.827554 -1.490127 -0.565493 3.440961 1.430638 -4.099133 2.160835 0.557984 -2.281617 2.688919 0.777209 2.065911 -1.883625 -0.065177 3.405015 0.980587 0.004233 0.838578 -2.632390 -2.067604 3.057288 -1.380735 0.088002 0.102172 1.732107 -0.076759 -1.235741 2.150104 1.675922 1.269308 -2.836782 -2.665389 2.255225 -0.347240 2.563470 -0.158378 -2.435921 -4.568835 0.969447 1.935441 1.011494 -0.771522 
javax.swing.JPanel#add -0.275132 -1.239932 -1.666257 -0.831291 0.983642 1.845708 0.946280 -1.836367 -1.091157 -2.077701 0.968161 -2.202158 0.052448 2.819626 -2.579057 2.091341 0.565184 0.723048 1.964105 2.184906 -2.947167 3.943106 -0.147686 2.342155 0.011482 -3.774999 -0.908968 0.878053 2.386971 0.434304 0.039843 0.587447 -1.621280 1.407071 1.039741 -1.444228 -1.267286 0.588390 0.585422 -3.073868 -0.941166 0.449149 0.407751 -0.037205 -0.641912 -1.559040 -0.353704 0.987287 -3.167060 2.577860 0.184842 0.599172 -3.469586 0.746546 -0.434790 -0.960558 -1.182053 -0.820402 -0.914241 1.329130 0.833944 -1.522481 -1.992897 0.364211 -2.181215 2.002856 -1.320013 2.488791 -0.204277 -2.560112 0.486340 -2.586782 -0.517431 2.357759 3.702054 1.424562 -3.376160 0.214655 -2.295621 0.871404 -1.784805 -1.701460 0.568899 -0.009493 -1.841089 0.213874 -3.490602 -0.133764 0.638537 5.445810 -0.219857 3.486583 0.033714 1.230023 0.565219 -1.647408 2.282572 4.638345 -1.283841 1.698300 
id 2.278624 0.358183 -1.140497 1.630718 0.913430 -0.640937 1.325563 -0.699220 0.145625 3.437618 0.872028 1.027624 -1.872249 -0.604755 2.816733 -0.726574 -0.875166 1.102512 -1.902209 -3.220255 1.408643 -0.199405 1.513259 0.927808 -0.823381 -2.196245 1.209668 1.300657 -0.788124 0.148668 1.539834 -2.580992 -1.057564 0.979738 1.002421 -2.613587 -0.922671 -3.273907 1.785516 -0.647078 0.238116 -0.714413 -1.141186 -0.532199 -1.074744 0.721968 0.159620 -0.535902 0.793407 -1.192009 1.969867 -1.588838 0.490316 -0.582647 1.305144 -1.233488 0.619085 -0.599892 0.885663 0.758753 -3.177745 -2.953206 1.556372 -2.094579 -0.080677 0.532879 -1.422695 -3.957898 0.556868 -0.530136 -1.128173 0.578762 -0.150301 -0.558597 -1.582722 1.680507 0.276615 1.969368 2.424750 -0.758113 0.555386 -1.610027 1.319002 -0.673398 2.642502 1.795714 1.484165 -1.445155 0.945075 -1.498451 0.598832 -1.609085 0.665477 -1.046242 1.052744 -1.431252 -2.869956 -0.973044 -0.327952 0.262020 
call -0.913572 1.745198 -0.256965 2.020448 0.827754 -5.414815 0.275603 0.651639 -0.367673 -1.069596 0.753468 -4.665398 -1.234204 -1.839345 -0.325920 0.702929 -0.532326 0.001460 0.664708 -1.303464 -0.847520 0.671511 1.482468 -0.433137 -1.618948 0.249830 2.175061 2.344601 -1.897698 2.176022 -0.556228 -0.805392 -0.723927 1.088994 0.102487 0.015953 1.753916 -1.068511 -2.804508 -0.350697 -0.379998 0.137972 -0.497444 -0.521527 1.657125 0.734990 -1.792020 1.120903 -1.183463 1.241045 -0.634503 1.534621 -1.307174 0.794234 1.732388 2.289353 1.761054 -2.218530 -0.535751 0.666716 0.279007 -2.404425 0.614532 1.421318 1.438969 -1.595516 0.432602 -0.216980 -0.792674 -1.085268 -1.581596 1.898569 -0.025301 -0.561354 -2.134388 -1.479991 1.990703 -0.733529 2.303356 1.389056 -0.438221 -2.326465 -0.816487 2.232843 0.313845 -4.589940 -0.236433 0.411114 -1.404830 -1.165696 2.054806 -1.728297 0.420956 0.086468 1.447068 -0.550915 0.399038 -1.400950 1.863325 -3.096622 
action -2.874223 -2.007425 -2.908067 -0.451919 -0.093511 1.376974 0.867770 0.747759 -2.097108 -0.186817 0.103351 0.541918 -0.529076 1.479795 -1.677184 2.591402 0.411108 0.728501 1.327485 1.465841 -1.071355 2.584063 -1.151510 1.609987 -0.621712 -2.391181 0.718015 1.963268 0.013951 -1.223121 -0.538198 0.300491 -2.129964 0.772254 0.374746 -1.874962 -0.700034 0.940864 -0.751997 -0.811371 -0.601784 0.876335 -0.803597 -0.416449 -0.289628 -0.227656 -0.436400 1.506709 -0.834403 3.062726 -1.049851 2.010798 -2.297193 0.031807 2.684208 -0.105026 0.955217 -0.940882 0.472355 1.280656 2.089753 1.681721 1.627265 -0.426877 -0.057012 0.390690 -2.025056 1.128770 0.717812 -2.068803 0.471344 1.349520 -0.658068 0.943207 -0.810967 -0.465543 -1.192924 -0.370338 0.917235 -0.160353 1.093145 -2.129723 0.147186 1.373613 1.331078 0.099677 -0.512664 0.083555 2.120622 2.310184 -1.732927 -2.153683 0.292429 2.831990 2.288448 0.154532 1.220839 1.311194 1.094414 -0.709943 
java.lang.StringBuffer#.new -1.557675 2.126797 0.634601 -1.414089 -3.161095 2.600297 -1.811937 -1.116431 2.494158 0.184187 -4.049579 -0.085362 0.301070 -0.490871 1.811566 -0.190445 1.854397 -2.089667 -2.072207 0.814091 0.280154 1.808329 -1.558786 -0.788737 3.042304 0.719662 2.044100 0.938449 0.006741 0.546654 0.402734 -2.265301 -0.773642 -0.441779 -0.390254 4.386702 -1.775069 0.913546 1.802777 0.880110 -1.272980 2.205011 0.171587 -0.827333 -1.927937 -0.518070 -0.218383 1.328376 -0.382101 1.592026 1.611247 1.804407 -1.335577 3.301375 -2.842022 -1.368228 -3.144776 -0.326508 2.670860 -3.252939 -1.497335 -4.210653 3.335606 -1.553927 -1.755339 0.223081 5.573754 1.764014 -0.856959 0.346723 0.612149 1.866319 -0.696751 0.455129 1.411615 4.330334 0.077403 0.430573 -1.392532 -0.807441 0.013747 2.338704 0.964372 -0.622753 -2.922707 5.839375 1.774878 -3.290877 -0.851382 2.174685 2.856028 2.033690 1.852487 -4.100362 1.079400 1.570993 -1.058355 0.248998 3.714215 0.559489 
